5785 50
0 0.008405 0.008839 -0.007661 -0.006556 0.002733 0.006042 0.001882 0.000423 -0.007207 0.004437 -0.008713 0.002499 -0.001503 -0.001914 -0.006631 -0.003764 0.005159 0.006051 0.005938 0.003195 0.003090 -0.007605 -0.008192 0.009939 0.007603 0.006180 -0.001208 0.008031 -0.000990 0.001469 -0.000298 -0.005966 0.002625 -0.002675 -0.007651 0.009529 0.008759 -0.002190 -0.000452 0.001018 -0.007275 -0.008014 0.009109 0.000126 -0.005165 -0.006084 -0.006153 0.003394 0.000403 0.002662 
1 -0.008427 -0.007616 -0.000260 0.002287 0.005099 -0.006340 0.008159 0.001854 0.002239 -0.001217 0.005973 -0.004576 -0.004195 0.004317 -0.001506 0.002061 0.003609 -0.008177 -0.003966 0.005827 0.008464 0.007864 -0.006094 -0.004215 -0.001818 0.004003 -0.007577 0.005996 0.005576 -0.003198 -0.003103 -0.004477 0.008458 0.007824 -0.002360 0.008430 0.009641 0.003631 0.009966 -0.006222 -0.003063 -0.004215 -0.005814 0.005630 0.003159 0.000850 -0.004387 0.003048 0.006119 0.000387 
2 0.004559 -0.009905 0.008630 0.000960 -0.003662 -0.004167 -0.001496 -0.005870 -0.008739 -0.005674 0.008554 -0.003540 -0.005359 0.004635 -0.003408 0.009513 -0.003209 -0.009178 0.005432 -0.000149 -0.006978 0.001952 0.002884 -0.000963 0.003649 -0.007915 0.001762 0.003633 -0.006018 0.000284 -0.000121 -0.004798 -0.005665 -0.009388 0.000046 0.000305 0.000020 -0.007868 -0.009924 -0.009493 -0.008651 -0.001094 0.002783 0.002368 -0.006365 0.009996 -0.004023 -0.002547 -0.002809 0.009465 
3 -0.006635 0.002322 -0.002671 0.006375 0.000081 0.008539 -0.005638 -0.005210 -0.008384 -0.007334 -0.006399 -0.006230 0.004888 -0.003734 0.005360 0.007380 0.002712 0.005901 0.004951 0.004681 -0.007101 -0.006866 -0.007313 -0.000264 0.008261 -0.005473 -0.006121 -0.008328 0.006612 -0.008358 -0.001158 0.004358 -0.009236 -0.008957 0.002886 0.007049 0.008528 0.004291 0.006324 -0.006255 -0.007281 0.007950 -0.005530 0.003507 0.001148 0.003581 -0.002365 0.000398 -0.003372 -0.002253 
4 -0.008867 -0.006520 0.006971 0.002011 -0.004725 -0.003184 0.004990 -0.007065 -0.004626 0.009469 0.008497 -0.007918 0.001742 -0.004500 0.000305 0.006013 0.009692 0.003973 0.008226 0.006293 -0.000463 0.008950 0.005073 0.009483 -0.003411 0.009493 0.008658 -0.002855 -0.008839 0.009665 0.001794 -0.004157 -0.001436 -0.001471 -0.007707 -0.002862 -0.000887 -0.009854 -0.007032 -0.002407 -0.001882 0.003580 0.001631 -0.001229 0.005892 0.002893 0.001096 0.007234 -0.002251 -0.002853 
5 -0.000827 -0.005455 -0.006000 0.000405 0.008676 -0.002734 -0.000042 -0.008271 0.007418 -0.003040 0.005936 -0.004817 -0.001790 0.000188 0.007246 -0.000172 0.008865 -0.001485 0.004200 -0.000274 -0.007803 0.008501 0.002112 -0.006059 0.006016 -0.008289 -0.008707 0.006535 -0.006863 -0.005295 0.007056 0.006571 0.001370 0.009047 0.009713 0.008110 0.003530 -0.008701 0.004578 -0.009784 -0.002573 0.003024 0.001962 -0.003050 0.005876 -0.009216 -0.002822 -0.002624 -0.003312 0.006142 
6 -0.009462 0.005556 0.002675 0.005659 0.007356 0.000553 0.001651 -0.009100 -0.002057 0.006428 -0.003572 0.008426 -0.002388 -0.007755 -0.005182 0.009799 0.006676 -0.007935 0.009633 -0.008418 -0.009553 0.004952 -0.001313 -0.004662 -0.000763 -0.005032 0.004792 0.007630 0.008359 -0.008825 -0.004240 0.000019 -0.001874 0.007636 0.004404 0.009068 -0.006150 0.003414 0.008536 -0.003661 0.005844 0.002570 -0.009031 0.008396 0.009419 -0.005832 -0.000485 -0.003199 0.004889 -0.007730 
7 0.006987 -0.001884 -0.002434 -0.004062 -0.008803 -0.006097 -0.002238 0.009236 -0.005042 -0.009275 0.000791 0.001224 0.006082 0.000146 0.006964 0.005966 -0.002618 -0.001274 0.001594 0.002525 0.006671 0.008029 -0.005006 -0.005037 -0.003240 -0.005383 0.002476 -0.007658 -0.004538 -0.009947 0.004352 0.008725 -0.004410 -0.009101 0.005935 0.003175 -0.005043 -0.001283 -0.002462 -0.000247 -0.003626 0.000071 -0.005527 0.007523 0.007654 0.006523 -0.002948 0.000547 0.001611 -0.005366 
8 -0.009116 -0.002113 -0.003945 0.005968 0.005394 0.003606 -0.006199 0.007321 -0.003218 0.006766 0.002659 0.009555 0.005065 0.001430 -0.004556 0.009932 -0.004446 0.006661 0.009966 0.009782 -0.001437 0.006521 0.009040 -0.004333 0.009404 -0.009928 0.000477 -0.000887 0.008390 -0.008623 -0.002911 -0.003208 0.000833 0.009498 -0.003310 -0.009691 -0.002955 0.008498 0.002092 0.005808 -0.007661 -0.002560 0.001107 -0.004693 0.007028 -0.009615 0.006547 -0.004785 0.006423 0.006397 
9 -0.003774 0.007096 0.000839 0.009538 -0.007044 -0.002487 0.005586 0.008871 0.004549 -0.001974 0.000978 -0.001543 0.003818 0.005201 -0.007673 -0.002641 0.008575 0.000597 0.009945 0.009641 0.001633 -0.009221 0.009146 0.004364 -0.009196 0.007309 -0.009760 -0.004409 0.008901 0.006748 -0.001458 0.002384 -0.006264 -0.009339 0.004364 0.008806 0.008122 0.005608 0.003018 0.003919 -0.000129 0.003153 -0.005184 0.001787 0.001796 -0.000141 0.005071 0.001471 -0.008290 -0.002713 
10 0.004095 0.007033 -0.007576 0.002000 0.007202 0.007538 -0.008249 0.005561 -0.005297 -0.002954 0.002504 0.004532 -0.008088 -0.005380 0.002496 0.000475 0.009139 0.004323 -0.005462 -0.000046 0.001699 -0.004782 0.006443 -0.005470 0.009904 0.001367 -0.008975 0.000767 -0.000935 0.001832 0.006094 0.000226 -0.000504 0.000676 -0.005535 -0.000529 0.006509 0.006961 0.003948 -0.009937 0.000416 -0.005249 0.007358 0.008565 0.006531 0.003106 0.002505 -0.003460 -0.004835 -0.003909 
11 -0.007796 0.000550 0.001631 0.002767 0.004266 -0.007843 0.006241 -0.002803 -0.008497 0.007925 -0.005691 -0.001557 -0.008271 0.009416 -0.003854 -0.009431 0.007756 0.003191 0.007065 0.002635 0.007396 0.000815 0.007379 0.008706 0.003461 -0.001152 0.002400 0.007843 -0.006235 -0.001146 0.002440 0.004109 0.001120 0.007395 0.002813 0.006566 -0.006662 -0.003966 0.003829 0.009277 0.003232 0.001333 -0.009197 -0.008695 0.008614 0.004855 -0.005953 -0.003289 -0.007703 -0.006838 
12 0.008872 -0.005441 0.002093 -0.002184 -0.004408 -0.001089 -0.009185 -0.004619 -0.000481 0.008829 -0.003725 0.007419 -0.009034 0.008376 0.001286 0.000491 0.005244 0.006615 -0.006340 0.006161 0.002667 -0.002393 0.006210 0.000992 0.008547 0.000416 -0.003251 0.006544 -0.006803 -0.000896 0.008088 0.009383 -0.008071 0.002733 0.008040 0.001068 0.005055 0.005366 0.009418 -0.001836 -0.002112 0.006065 -0.009965 0.002233 0.000741 0.008894 -0.007298 -0.000163 0.008926 0.002914 
13 0.005233 0.002538 0.002755 0.002187 0.000439 0.006900 0.007542 0.005777 -0.003867 -0.005516 -0.006403 -0.002254 -0.004871 -0.008147 -0.003765 0.007157 0.005237 -0.009430 -0.004232 0.008071 -0.000728 0.007198 -0.002493 -0.000448 -0.004955 0.003297 -0.008234 0.005661 -0.004632 0.005432 -0.006143 -0.004538 0.008055 0.005165 0.004093 0.003017 0.005917 -0.000942 0.007786 0.007389 0.006768 0.008673 -0.004752 -0.007361 -0.006580 0.000574 0.001792 0.007831 -0.006315 0.006322 
14 0.007731 0.007026 0.000375 0.002481 -0.001624 0.009288 -0.008696 -0.009388 0.004042 -0.001321 0.009284 -0.002722 0.000039 0.004261 0.002127 -0.005958 0.006681 0.000097 0.002646 -0.002534 0.009280 0.005250 0.008653 0.009113 -0.001852 0.003781 0.002961 -0.004455 0.008599 0.004754 -0.006618 0.008324 0.000944 0.002231 -0.007271 0.004014 0.000496 -0.004726 -0.001186 0.004176 -0.002433 0.007946 -0.005550 -0.004626 0.007471 0.009310 0.007449 0.009169 -0.009481 -0.006573 
15 -0.009376 0.002124 -0.007976 -0.000639 0.001788 -0.004198 0.002299 -0.008826 0.003752 -0.003235 -0.003345 -0.002072 0.004329 -0.003424 -0.004594 -0.006314 -0.003668 -0.008203 0.003865 -0.002489 -0.002426 0.003991 -0.007657 -0.006536 -0.009134 -0.000280 -0.003848 -0.009391 0.004022 -0.009454 -0.004393 0.003008 0.009853 -0.006967 -0.003982 0.009723 0.006172 0.008742 0.007699 -0.005183 -0.004207 0.004236 0.005962 0.007352 0.006526 -0.008922 -0.008881 0.001391 -0.008814 0.005830 
16 0.008484 -0.004003 0.007584 -0.009945 0.008368 -0.004768 -0.001468 -0.009685 0.006084 0.008158 -0.008156 -0.001827 0.001945 0.008838 0.000331 -0.009809 0.001262 -0.003666 0.001807 0.007931 -0.005651 -0.005291 -0.000916 -0.002043 -0.003481 -0.006974 -0.000026 -0.008170 0.008082 0.005346 -0.002711 0.006114 -0.005647 -0.009267 0.008843 0.002370 0.005643 -0.006751 -0.002552 0.007161 -0.002734 0.001956 -0.009084 -0.007950 0.009532 -0.009082 0.002060 -0.006401 0.007756 -0.000805 
17 0.008692 -0.006629 0.002250 -0.009148 -0.006375 -0.002072 0.008325 -0.005050 0.004671 -0.001168 0.006295 0.005551 -0.005357 -0.007353 0.001472 0.001720 0.001353 0.000934 0.004169 0.007517 0.007614 -0.009743 0.009697 -0.007995 0.001238 -0.007823 -0.001630 0.009248 -0.004962 0.003257 -0.004500 -0.001693 0.006827 0.005060 -0.008600 0.003244 -0.000584 0.004148 0.001382 -0.006877 0.000618 -0.007916 0.005758 0.002007 0.003246 0.005430 0.009841 0.008956 0.005113 0.005749 
18 0.003944 -0.001966 0.009030 -0.000398 0.003379 -0.001696 0.002811 -0.001446 0.008458 0.003828 -0.000733 -0.000835 0.004495 -0.006332 -0.003788 0.003000 0.001801 -0.008113 -0.003543 -0.003381 -0.004312 0.007547 0.007816 -0.008414 0.006471 -0.005288 0.003100 0.004463 -0.000540 -0.007558 0.000123 -0.003187 0.004969 0.004802 0.001696 -0.004802 -0.001689 0.000853 -0.004367 -0.008819 -0.000204 -0.005342 -0.005255 0.001324 -0.005261 0.005279 -0.003154 0.007189 -0.006549 -0.003221 
19 0.004748 -0.004660 -0.008755 -0.001779 0.006263 -0.002662 0.008434 0.003667 -0.005797 0.009746 -0.009670 -0.007821 0.006382 -0.005872 0.007245 0.007820 0.005612 -0.002956 -0.005508 -0.000348 -0.000295 -0.009942 -0.007616 0.001738 0.001474 0.009732 0.006233 -0.006859 0.008731 -0.002372 0.006351 -0.002078 0.004289 0.000310 0.008052 0.005145 -0.004040 0.009340 -0.008353 0.008872 -0.003443 0.001280 0.002449 0.008165 0.003892 -0.002308 -0.009230 0.007087 0.000778 0.005139 
20 -0.008076 -0.005299 -0.004973 -0.004815 0.006222 0.005068 -0.000547 0.004390 -0.001023 -0.002748 -0.008134 -0.005682 0.000502 -0.004685 -0.004920 -0.008469 0.006108 0.008319 -0.003093 0.007592 -0.003890 -0.009673 -0.009839 -0.000937 -0.004182 0.000401 -0.007348 0.007506 -0.004454 0.002605 0.007194 -0.000515 -0.009395 0.005999 0.001600 0.006562 0.001310 0.004648 0.008681 0.005298 -0.007029 -0.002387 0.006251 -0.002743 -0.004098 0.008957 -0.002879 0.009002 0.005415 0.007743 
21 0.009105 -0.007906 0.001823 0.008032 -0.004986 0.003096 -0.009563 0.008888 -0.007338 0.003571 0.001571 -0.005628 0.004860 0.000081 -0.009463 -0.006452 -0.000578 0.004189 -0.002352 0.000478 0.009160 -0.007544 0.008215 -0.005775 -0.008115 0.006447 -0.007448 -0.001150 -0.009588 -0.007278 0.005972 0.003416 -0.007448 0.002846 0.008785 0.001987 -0.008882 -0.006621 0.006306 -0.006376 0.003922 0.005885 0.008846 0.002390 -0.006224 0.006927 -0.008281 -0.002653 0.008494 0.008065 
22 -0.004764 -0.007442 0.000888 0.005865 0.004709 0.007086 0.008770 0.001886 -0.009547 0.004992 -0.005047 0.002693 0.007778 -0.004660 0.007249 -0.000152 -0.003002 -0.007808 -0.001529 0.009912 0.003425 -0.005390 0.006431 -0.005550 -0.002628 0.006657 -0.006058 0.000022 -0.005850 -0.002604 0.008817 -0.001808 -0.005927 0.000888 0.003867 0.005523 0.002454 -0.003803 -0.003095 0.003576 0.009603 0.007385 -0.009256 -0.001086 -0.009165 0.003514 -0.006804 0.003100 0.006461 -0.001353 
23 -0.002925 -0.007304 0.001794 -0.008153 0.000191 0.009264 0.007147 0.007175 0.005358 -0.000632 -0.002168 -0.006305 0.000389 -0.005431 -0.005839 0.005468 -0.001905 -0.008569 0.001448 0.001559 -0.003710 -0.008485 -0.009996 0.006028 -0.002215 0.001385 -0.004858 0.007938 -0.009606 -0.007398 -0.002826 0.001352 0.006928 0.001729 0.001414 0.005333 0.005201 -0.009671 -0.001827 0.003943 0.008024 0.004964 0.002764 0.006244 0.003211 -0.002804 -0.004501 0.006299 0.003574 0.003589 
24 0.001692 0.003170 0.006924 0.005705 -0.008346 0.000920 -0.003924 -0.009895 0.000698 0.008612 -0.001159 0.008354 0.009137 0.000307 0.008032 -0.002988 0.002283 -0.004931 0.001461 -0.002357 -0.009552 -0.003040 0.001940 -0.003191 0.008945 -0.004958 -0.002717 0.006073 -0.001913 0.003379 0.000302 0.001997 0.003186 0.001031 0.008809 0.006144 -0.005446 -0.007937 0.005617 0.005076 0.007505 0.005536 -0.001462 -0.009644 0.002350 -0.004488 0.000385 -0.001455 0.004402 0.001056 
25 0.008970 -0.008792 0.003973 0.006228 0.007106 -0.005095 -0.003623 0.000091 0.002606 0.001200 0.001925 -0.003291 0.008281 0.006656 0.005930 -0.004857 0.001944 -0.007166 -0.001295 -0.000545 0.006408 0.006297 -0.004438 -0.001291 0.009485 -0.001393 -0.003187 0.006967 0.003989 0.006328 0.007771 0.003292 0.007730 -0.008978 -0.001251 -0.008255 0.003522 -0.000749 0.005059 0.001390 -0.000822 0.002577 0.007013 0.006289 0.007509 -0.002436 0.009924 0.005504 0.006329 0.005773 
26 0.004105 0.003098 -0.001551 -0.006233 0.004868 0.008133 -0.008317 -0.006891 -0.007474 -0.005327 -0.001158 0.000362 -0.007610 0.001778 -0.002260 -0.002914 -0.005226 -0.006487 -0.008812 0.009846 -0.005010 -0.001061 0.007000 -0.009796 -0.006649 -0.007881 -0.002012 -0.005278 -0.004832 -0.007885 0.001964 0.004962 -0.009244 0.002990 0.001740 0.007488 -0.004575 -0.006193 0.005130 -0.006139 0.009489 -0.001372 0.004946 0.000645 -0.001741 -0.003485 -0.001000 0.009401 -0.007950 -0.008470 
27 -0.009896 0.006692 0.006172 -0.007262 0.006072 0.004081 0.000939 -0.005801 -0.000284 -0.001870 0.001663 -0.005023 0.008848 -0.009598 -0.001344 -0.000867 -0.003719 0.007459 0.007231 -0.004269 0.009827 0.000863 0.007701 -0.001167 0.002299 0.007178 0.005378 0.007501 -0.008491 0.007965 -0.009425 0.005798 0.000270 0.009788 -0.001396 0.002787 -0.003605 0.004208 0.009777 -0.007471 -0.007305 0.007788 0.009407 -0.005912 0.006983 0.002091 0.007806 -0.008474 0.002072 -0.006320 
28 0.000288 -0.006095 0.005775 -0.005885 0.007164 -0.004712 -0.009097 -0.000039 -0.006252 -0.005263 -0.004731 -0.007220 -0.009650 -0.003684 0.001686 -0.000866 -0.007715 0.009085 -0.002033 -0.009415 -0.000135 0.007109 -0.003077 0.003697 -0.001599 0.009449 -0.003632 0.000031 -0.001793 0.000168 -0.000887 0.006150 -0.005405 0.008329 -0.007028 -0.006383 0.007877 0.007993 -0.009244 -0.001006 0.003367 -0.001776 -0.009721 0.003844 -0.008624 0.003083 -0.005648 -0.005271 0.007217 -0.008366 
29 -0.007500 0.005816 -0.017490 -0.002729 -0.008380 0.012445 0.010843 0.002179 -0.000505 -0.001008 0.016524 0.002951 0.003441 0.006753 -0.008719 -0.001740 -0.005049 0.018336 0.011725 0.000629 0.001255 0.005785 0.001043 -0.006687 -0.004042 -0.000869 -0.009245 -0.000552 -0.004673 -0.005354 0.006877 -0.018662 -0.006284 0.002230 0.007175 0.008585 -0.003419 -0.000340 -0.000189 0.006664 0.007153 -0.008801 0.009476 0.008690 0.009449 -0.001956 -0.000806 0.002725 -0.006159 -0.005724 
30 -0.006947 0.002153 0.004213 -0.004189 0.006355 -0.006054 -0.005952 0.004723 -0.002823 0.005368 -0.006566 0.004671 0.000830 0.005482 -0.009816 0.007216 -0.002372 0.008349 -0.002891 0.008921 -0.007117 -0.006967 -0.007978 -0.008651 -0.003092 0.003596 -0.002264 0.001062 0.005015 0.009100 0.002064 0.009623 -0.002484 0.003608 -0.002183 -0.006406 -0.000276 0.006183 0.002808 -0.005462 0.001952 0.000886 -0.000150 -0.000984 -0.000488 -0.003219 -0.003244 -0.001407 -0.007284 0.007929 
31 0.006337 0.009829 0.006877 -0.006606 0.006407 -0.005711 -0.007692 -0.002762 -0.000223 -0.001467 0.004321 0.008524 -0.005739 -0.005875 0.003229 0.001313 0.002670 -0.002373 -0.005657 -0.005331 0.002818 -0.009398 0.007977 -0.007346 -0.002484 -0.000388 -0.000557 0.004330 -0.005422 -0.003780 0.009054 0.003759 0.006816 -0.003012 0.002122 -0.009994 -0.007958 0.003478 0.008959 0.007131 -0.006932 0.002254 0.004878 0.004198 -0.002292 0.004877 -0.009808 -0.004732 -0.001226 0.007910 
32 -0.009788 -0.000595 -0.005922 -0.007083 -0.004747 0.000671 0.006432 0.006458 0.000625 0.008128 0.003651 0.000097 0.006642 -0.004160 -0.001456 -0.009604 -0.001384 0.002867 0.008926 -0.001082 0.006859 -0.006726 -0.002391 -0.007776 0.006685 -0.003878 -0.007595 0.001879 -0.001595 0.005473 0.006127 0.004444 0.007332 0.000392 -0.003412 0.001481 0.003778 0.004939 0.006599 -0.000446 0.003057 0.008177 0.003973 -0.009776 0.005480 0.004170 0.001523 -0.009946 -0.003640 -0.008022 
33 -0.002939 0.000607 0.006010 -0.004334 -0.006600 0.008445 0.009741 0.004295 -0.001647 0.005131 0.007867 -0.008072 0.004731 0.007227 0.005701 -0.002372 -0.009653 -0.003705 -0.006447 0.005456 -0.001985 -0.001101 0.006738 0.004476 -0.004455 0.006601 0.005568 0.008750 -0.004249 -0.004038 -0.004646 -0.002660 -0.003554 0.008546 0.006410 -0.005691 0.000441 -0.009084 -0.005952 0.008719 -0.004450 -0.005367 -0.001420 -0.005367 -0.005416 -0.003740 0.005320 -0.008886 -0.004643 -0.002640 
34 0.004579 0.002224 0.000681 0.004495 -0.008330 -0.002975 -0.001633 0.009228 0.006906 0.009580 0.001230 0.008120 -0.004402 -0.001049 0.007081 0.002736 0.008060 0.009201 -0.001268 -0.000363 -0.000396 0.009393 0.003997 -0.009615 -0.009457 -0.006411 -0.004312 -0.008457 0.006189 0.000851 -0.008383 0.004674 -0.003146 -0.004759 -0.005403 -0.003659 -0.002148 0.005824 -0.007560 -0.001895 0.009493 0.006660 -0.002042 0.006529 -0.002908 -0.003188 0.008965 0.003175 -0.009039 0.000344 
35 0.008273 -0.005393 0.006411 0.006317 0.003694 -0.007613 0.003756 0.008794 0.008041 -0.006924 0.008308 0.006837 -0.000873 -0.001761 -0.009620 0.004509 -0.000237 -0.005564 0.005283 -0.009128 -0.002238 -0.006768 -0.006669 -0.000010 0.005937 -0.008813 -0.000164 -0.009076 0.002100 0.009865 -0.004889 0.007737 0.009064 -0.004172 -0.005532 -0.000509 -0.005358 0.000639 -0.001781 0.000249 -0.008355 0.000860 -0.008323 0.009073 -0.002114 -0.001947 0.005155 -0.009973 -0.003821 -0.001218 
36 -0.006035 -0.007829 -0.005666 -0.005392 -0.001581 0.009570 0.005165 0.002095 0.003831 0.001285 0.006485 0.002804 0.000511 -0.008621 0.001105 0.003299 0.003774 0.008914 -0.003161 -0.004859 -0.006068 0.007954 0.006498 -0.005107 -0.003704 0.007560 0.007896 0.004118 0.001180 -0.008206 0.003845 0.009378 0.003896 0.009720 0.002156 0.002235 0.004757 -0.004600 -0.004356 -0.000747 0.009075 0.007896 0.002120 0.001994 0.007162 -0.008728 0.004396 -0.002981 -0.005669 -0.005412 
37 -0.009714 -0.004107 -0.009105 -0.008091 -0.007398 -0.004824 0.002166 0.002296 0.009156 -0.003568 -0.001544 0.009812 0.002761 0.006223 -0.004922 0.003519 0.001229 -0.003888 -0.007655 -0.002520 -0.002628 0.002661 -0.004431 -0.009242 0.009005 0.007433 -0.004938 0.007414 -0.001063 -0.003010 0.006138 -0.003488 -0.005016 0.002895 0.009108 -0.007886 0.009955 0.001709 0.009285 -0.006718 0.001666 -0.005003 -0.003019 0.004079 -0.007073 0.009319 0.007510 -0.006432 -0.008449 -0.003761 
38 0.001183 -0.004190 -0.009649 -0.007680 0.003313 0.009869 0.007139 -0.000877 0.004213 -0.000193 0.004728 0.003211 -0.000806 -0.005314 -0.009069 -0.003853 0.008571 0.008569 -0.001441 -0.005508 -0.002346 0.000518 0.005425 -0.000189 -0.003243 -0.005403 -0.005657 -0.001335 0.001191 -0.000133 -0.006877 0.002616 -0.008729 -0.009610 -0.005421 0.008228 -0.007693 0.005230 -0.003476 -0.002938 -0.005387 0.008449 0.001769 -0.004319 -0.006499 0.009110 -0.001872 -0.004352 0.009283 0.001274 
39 -0.001588 -0.006474 0.007273 0.004005 0.000435 -0.009124 -0.002218 0.001364 0.007009 -0.005739 -0.003877 0.002415 0.005945 -0.004757 0.002609 0.001220 -0.009942 -0.009614 0.002551 -0.003158 -0.002841 0.001252 0.006263 -0.006658 -0.009940 -0.005598 0.009058 -0.000216 -0.003425 0.001400 -0.008754 -0.009771 0.009516 -0.001191 -0.001858 0.003741 0.006695 0.008190 0.000057 0.004382 -0.009075 -0.003894 -0.007695 0.001214 -0.009982 -0.005880 -0.004803 0.008300 -0.003214 -0.001206 
40 -0.005955 0.004703 0.009044 -0.008309 -0.000836 -0.005515 0.009601 -0.000627 0.005864 0.006707 0.006273 -0.006598 -0.005541 -0.004566 -0.008130 -0.009658 -0.009739 -0.000273 0.004205 -0.008246 0.003583 0.003650 0.006091 0.004202 0.009736 -0.003737 0.005340 -0.000753 0.009034 -0.008369 -0.005235 -0.006548 0.006790 0.008814 -0.007822 0.008380 -0.006686 -0.008123 0.000392 -0.009406 0.003921 0.009881 0.007220 -0.008346 -0.001078 -0.003111 0.005473 0.008125 0.003630 -0.008036 
41 -0.007036 0.001569 0.008358 -0.000833 -0.007493 -0.001452 0.008418 0.007562 -0.008088 -0.009376 0.004122 -0.008789 0.003994 -0.005639 0.000784 0.009176 0.006563 -0.008680 0.008715 0.005520 0.002433 0.008064 0.003228 0.009305 -0.000583 -0.003844 0.004635 -0.005406 -0.009673 -0.007841 -0.001750 0.000450 -0.007026 -0.002367 -0.005616 -0.009065 -0.009827 -0.000857 0.008350 -0.004889 0.009734 0.008251 0.000460 0.007041 0.004472 0.001519 -0.003972 0.005787 -0.007802 0.000509 
42 0.005365 -0.004588 -0.004276 -0.008215 0.003784 0.004979 0.002864 0.006908 -0.008402 0.008549 0.006430 0.002442 -0.005881 0.005186 0.004234 -0.000052 0.001659 -0.001048 -0.000911 0.005989 0.009531 -0.001090 -0.001193 -0.007872 -0.001952 -0.000879 -0.003799 -0.005073 -0.007478 -0.001352 0.009083 -0.004051 0.003265 0.001555 0.000266 0.001756 0.005591 -0.003097 -0.002438 0.003910 -0.000189 -0.001245 -0.006216 -0.001025 -0.008762 0.006173 0.006744 0.008512 -0.009816 0.003220 
43 -0.000745 -0.000915 -0.008037 -0.001042 -0.000871 0.002255 -0.003114 0.007451 -0.000821 -0.005415 -0.009734 0.007760 -0.002783 -0.002362 0.002416 0.003947 -0.003943 -0.002024 0.008647 0.005077 0.003509 0.007162 0.009274 0.005210 -0.007613 0.001758 0.009607 0.003409 0.000504 0.003327 -0.000040 0.003737 -0.009329 -0.001570 -0.004355 -0.004743 -0.009299 -0.001368 -0.003026 -0.007969 -0.006592 0.000493 0.009260 -0.006879 -0.003398 0.005578 0.002816 0.002590 0.003098 0.000447 
44 -0.007046 0.009500 0.000706 -0.003336 -0.000013 0.007915 0.002241 -0.009209 0.009226 -0.003105 0.005513 0.004391 -0.009015 0.000505 -0.006663 0.004026 0.000576 0.007806 -0.006476 0.001259 -0.001688 -0.007139 -0.001114 -0.007348 0.009504 -0.005268 0.007237 -0.000233 0.004467 -0.002517 0.001389 0.009168 -0.001489 -0.009826 0.009153 -0.007584 -0.008051 0.006870 0.003344 0.006075 -0.009905 0.006632 0.001773 -0.008294 0.003260 -0.006477 0.007253 -0.004128 0.006758 -0.003395 
45 0.007596 -0.009864 0.000900 0.009941 -0.004385 -0.008940 -0.009001 -0.007406 0.009122 0.000207 0.007367 0.008625 -0.009070 0.004138 0.005317 0.007098 0.008851 -0.005582 0.005162 0.002075 -0.004302 0.007608 -0.007786 -0.007382 0.009283 0.005270 -0.003214 0.002790 -0.007581 -0.006032 -0.005811 0.001654 -0.007082 0.005263 0.004738 0.003271 0.003593 -0.004282 -0.006257 0.006705 0.002256 0.006896 -0.008483 -0.003982 -0.008279 0.005359 -0.006626 0.000272 -0.000202 0.002670 
46 -0.000375 -0.006470 -0.000699 -0.004609 -0.004417 -0.005146 0.008043 0.005085 -0.008439 0.008308 0.008835 -0.001687 0.002871 0.002953 0.009490 0.006640 0.009825 -0.007149 0.002822 0.006626 -0.002263 -0.002934 0.006641 -0.000164 -0.003082 -0.000340 0.003762 -0.007170 0.002681 0.009696 0.001995 -0.002828 -0.004662 0.001235 -0.005845 0.009424 0.000203 -0.006659 -0.001948 -0.008851 0.007587 -0.009925 -0.003499 0.008909 -0.007197 0.000501 -0.002687 -0.005733 -0.003837 -0.001319 
47 -0.006700 0.003784 0.002981 0.003678 0.002276 -0.000975 0.003568 -0.000447 0.007053 0.006551 -0.006763 -0.004630 -0.004557 -0.002076 -0.007699 0.005190 0.000258 0.009707 0.006072 0.008077 -0.000688 0.003463 0.004862 0.008093 -0.004583 0.005755 0.003984 -0.005700 -0.003615 0.008144 0.003751 0.000761 -0.004971 0.007193 0.009475 0.006539 0.009161 0.004464 -0.008531 -0.004305 0.001594 0.006521 0.005044 -0.002707 0.000140 0.004926 -0.009486 0.005395 -0.002388 -0.003759 
48 -0.006809 -0.000937 -0.008178 0.002028 0.003387 0.002361 0.005583 0.008850 -0.003584 0.004349 0.006707 0.008271 -0.007411 -0.000909 0.008007 -0.003149 -0.002781 0.005650 0.007296 -0.003846 0.000619 0.008088 0.007385 -0.007258 -0.001899 -0.004533 -0.003913 -0.001822 0.009977 0.001850 0.006215 0.009024 0.001560 0.006300 -0.004418 0.006842 0.003163 -0.007122 0.006999 -0.001804 -0.009902 -0.009352 0.008279 -0.005352 0.002677 -0.006328 -0.007764 -0.007241 0.006213 0.001012 
49 -0.003320 -0.005907 -0.008981 -0.003269 0.004426 0.005213 -0.007593 0.009891 0.003284 -0.002320 -0.009310 -0.005445 0.006069 0.008057 -0.008821 0.009786 -0.009409 -0.002093 0.004188 -0.000354 -0.000335 -0.006208 0.005029 -0.006803 0.001102 0.007274 -0.005985 0.004502 0.007714 -0.005083 -0.003542 -0.007377 -0.002685 -0.001717 0.002670 0.001623 -0.007283 0.003933 0.007964 0.000565 0.001732 0.003432 -0.007347 0.003510 -0.002828 -0.006660 0.002048 0.009522 -0.003149 -0.004779 
50 0.006464 0.002663 0.003581 -0.004362 0.001211 -0.008004 0.005174 0.006151 0.006603 -0.008418 -0.005557 0.003326 0.007952 0.000484 0.009200 0.008722 -0.004430 0.002766 -0.007742 0.008904 0.004771 0.007489 -0.008571 -0.004566 -0.004135 0.008716 -0.000474 0.004873 -0.005833 0.005509 -0.005639 -0.001214 0.009989 0.001931 -0.001253 0.003733 -0.001357 0.007044 0.000496 -0.008722 0.000441 -0.005088 -0.007579 -0.002016 0.000696 0.004596 -0.007665 0.005412 0.009720 0.000158 
51 0.003049 0.000125 0.002827 -0.009337 -0.007624 -0.006314 0.000328 -0.009829 -0.006871 0.002657 0.007537 -0.002255 0.003121 0.008600 -0.005236 -0.002552 0.005163 -0.001921 -0.002676 -0.001657 0.007068 0.002655 -0.004471 -0.005508 0.001650 -0.001108 -0.005310 0.004957 0.006719 0.008351 0.005121 -0.006199 0.005090 -0.002404 0.002134 -0.009914 0.004573 -0.001812 0.006041 0.007876 -0.002017 0.006690 0.002156 0.006231 0.003130 0.004665 0.000790 0.009216 0.002829 -0.001325 
52 -0.002744 0.005892 0.004891 0.000282 -0.008134 -0.009678 0.002128 0.006050 0.009934 0.001568 -0.007646 -0.002459 0.001771 0.003694 -0.001619 0.001316 0.002690 0.005760 0.008021 0.008940 -0.006996 0.001831 -0.005914 -0.003027 -0.001975 -0.009032 -0.005610 0.006979 0.008065 -0.002766 -0.008255 0.005520 -0.001563 0.009691 -0.006037 0.004159 0.009454 0.002402 -0.006143 -0.000542 0.006428 -0.005570 0.009239 -0.007020 -0.000328 0.009836 0.002922 -0.008713 0.004497 -0.002316 
53 0.002718 0.005941 0.001217 -0.007964 0.001440 -0.006494 -0.004856 -0.008046 -0.003100 -0.004456 -0.003409 0.001501 -0.008089 -0.001384 0.000869 0.009740 -0.005715 -0.005714 0.008292 -0.009268 -0.003165 -0.000883 0.004172 0.003541 -0.002626 -0.005331 -0.001178 -0.007771 -0.001287 0.007508 0.007554 0.005858 0.008665 0.009193 -0.009320 -0.001509 0.000043 -0.003711 -0.006487 0.009190 -0.009340 -0.009642 0.006366 0.002019 0.003327 -0.002038 0.004551 0.006039 0.005858 -0.009337 
54 0.008380 -0.004688 -0.008936 0.005025 0.003167 0.008902 -0.003242 0.002609 -0.000778 -0.009129 0.005754 0.009978 -0.008140 -0.009718 0.005862 -0.001305 0.001393 0.001196 0.009897 0.005323 -0.006868 0.002677 -0.004330 -0.008578 -0.002609 -0.001214 0.005993 0.003557 0.009482 -0.001413 0.008680 -0.006710 0.009718 -0.003858 -0.003458 -0.002817 0.003411 -0.009486 0.007393 -0.003202 0.000873 0.005764 0.004045 -0.001301 -0.002583 -0.009044 -0.005690 -0.005553 -0.006644 0.000151 
55 -0.009000 0.000606 -0.005999 -0.007587 -0.008071 -0.001263 0.009667 -0.008196 -0.000091 -0.004597 -0.004336 0.007386 0.002752 0.002167 -0.007694 -0.006778 -0.006729 -0.004409 0.004905 0.008375 0.009278 -0.002762 0.003773 -0.003094 -0.006414 -0.006330 0.004224 0.007879 -0.005993 -0.003551 0.006569 -0.004644 0.003354 0.002139 -0.003879 -0.001601 -0.000561 -0.007699 0.003192 0.001071 0.005075 -0.006501 0.003096 -0.007565 0.008074 -0.002706 -0.003856 0.006552 0.001249 0.000249 
56 0.007649 0.002486 0.002413 0.003927 0.007924 0.004299 -0.005623 -0.005110 -0.007720 0.001053 0.004954 0.004701 0.001031 0.006811 0.006957 0.009922 -0.000510 0.000636 -0.001801 -0.007884 -0.002032 0.006589 0.001491 -0.002155 -0.008223 -0.006266 0.004647 -0.001329 0.001232 -0.003867 0.000478 -0.008842 -0.008357 -0.007152 0.006797 -0.003133 -0.006676 0.007942 0.006418 0.002361 0.001587 -0.009523 0.007151 -0.000797 -0.003256 -0.005484 0.001811 0.003955 0.004109 -0.000878 
57 0.008209 -0.001820 -0.006007 0.008357 0.009157 0.008440 0.001709 -0.008717 -0.007531 0.006298 0.007570 0.001963 -0.009044 0.008316 -0.003113 -0.000541 0.002432 -0.003944 -0.000026 0.007834 0.009709 -0.003918 -0.007856 -0.003849 0.000599 -0.000045 -0.006293 -0.001529 0.007914 0.004239 0.009978 -0.006142 0.009468 -0.009505 -0.008732 0.006374 0.008073 0.005286 -0.007109 0.005081 -0.008459 0.000175 -0.004843 0.004043 -0.007315 -0.008276 0.003381 0.002320 0.009317 0.001496 
58 0.007875 0.003977 0.004250 -0.003947 0.003950 -0.001925 0.005296 0.006957 -0.008080 -0.001324 0.005268 -0.009228 -0.002903 0.004845 0.001978 0.009059 0.009794 0.000642 -0.001761 0.008382 0.005322 -0.004870 0.001863 0.000302 0.003995 0.002373 0.005663 0.001382 -0.008875 0.001432 0.007452 -0.006815 -0.002975 -0.003631 -0.009959 0.002273 -0.002993 -0.003752 0.001243 0.000209 -0.008617 -0.004868 -0.006129 0.003555 0.005466 -0.007919 0.005738 -0.006126 0.009569 -0.008841 
59 -0.000345 -0.002273 -0.000996 0.001429 0.003436 0.006679 -0.005917 -0.003047 0.009892 -0.002710 0.000120 -0.003207 -0.003163 -0.008875 0.007426 0.005012 0.007082 -0.005256 -0.008687 -0.009328 0.008441 -0.000289 -0.007904 0.007837 -0.006275 0.002588 -0.004915 -0.004433 0.000748 0.004938 -0.009406 -0.002073 -0.007679 -0.006677 -0.006064 0.003978 -0.003742 -0.000694 0.005421 0.007783 0.005370 -0.000551 -0.009636 0.008404 -0.002529 -0.004686 -0.000924 0.009904 -0.004627 -0.006535 
60 0.006870 0.001346 0.006888 0.005463 -0.005941 -0.003208 0.004828 0.007871 0.005955 -0.004696 0.007007 0.002253 -0.007130 0.000945 -0.003763 -0.004831 -0.009883 0.002777 0.000330 -0.001817 -0.001991 -0.005137 -0.007901 0.007857 0.001858 -0.003734 0.009356 0.005753 -0.008024 -0.008953 -0.005086 -0.001565 0.003677 0.008270 -0.003415 -0.002535 -0.002728 0.001997 0.007182 -0.000595 -0.001926 -0.008710 0.004517 0.005817 -0.003605 0.000212 -0.008597 0.003264 0.007549 -0.002174 
61 -0.004348 0.003310 -0.008153 -0.001807 -0.009922 0.002515 -0.005398 0.000377 -0.007509 0.002443 0.006127 0.008440 0.005705 0.009656 0.001733 -0.008556 -0.002468 -0.004283 0.001735 0.003452 0.000786 -0.002812 -0.008557 0.003526 -0.006723 -0.004369 0.001171 -0.004270 -0.002181 -0.002390 0.006230 0.009124 0.002225 -0.005313 0.006935 -0.002227 -0.000694 0.003423 0.008596 0.000738 0.006876 0.005382 0.001527 0.002082 0.007746 0.007127 0.001040 -0.009132 0.009730 0.000219 
62 0.007448 0.001157 0.005639 0.001221 0.006062 -0.007987 -0.006713 -0.008304 0.007196 0.007497 -0.004515 -0.001794 0.006162 -0.003327 0.000047 -0.007686 0.003273 -0.006397 -0.000215 -0.009419 0.003840 -0.002650 -0.007490 -0.005428 -0.001823 -0.008025 0.001037 -0.009153 0.001597 0.006541 -0.006823 -0.009029 -0.005590 -0.004888 0.001743 -0.008496 0.001931 -0.003251 0.004547 -0.005990 -0.005529 -0.004485 0.004401 0.005052 0.007344 0.000472 0.009119 -0.003810 0.000861 0.005683 
63 -0.008487 0.003990 0.000334 -0.009789 0.009395 -0.009989 -0.003922 -0.001883 0.005578 0.000818 0.003403 -0.001535 0.007874 0.007973 0.002623 0.005317 0.009096 0.008037 -0.000950 -0.002265 0.007056 0.002575 0.002997 -0.000218 0.004567 -0.001853 0.009775 0.000521 0.009442 0.006317 -0.000302 -0.005987 -0.005508 0.003648 -0.001921 -0.000678 -0.002470 -0.008299 -0.004772 0.000510 0.001369 -0.002961 0.006460 0.006639 -0.006179 -0.008775 -0.007914 -0.008228 0.007700 -0.009179 
64 -0.002581 -0.005028 0.000816 -0.002611 -0.007228 0.000300 -0.004017 -0.002507 -0.006543 -0.003180 0.001014 0.002694 -0.000214 -0.001407 0.008720 0.009556 -0.002927 0.004684 -0.003085 -0.000360 -0.004371 -0.000847 0.008410 -0.000490 -0.009233 -0.008937 -0.008981 0.000727 0.002799 -0.005523 -0.002447 -0.000146 -0.002961 0.008458 0.005826 -0.001546 0.003798 -0.002932 -0.001351 0.003089 -0.001611 0.009369 0.003836 0.005321 0.001124 -0.000576 -0.005801 0.001714 -0.002683 0.006295 
65 0.007549 -0.006170 -0.002721 -0.005955 0.006701 0.008230 -0.003677 -0.008263 -0.000534 -0.003521 -0.005238 -0.006568 -0.001343 -0.004863 -0.002092 -0.001806 0.002086 0.005768 -0.003927 -0.009915 -0.007435 -0.005066 0.004570 -0.001833 -0.002092 -0.005802 0.003712 -0.003496 -0.009073 0.000122 -0.001189 0.004156 0.009434 -0.005731 0.000179 0.005188 -0.003758 0.003201 0.003130 0.008661 -0.000837 -0.001519 0.007975 0.008637 -0.008990 -0.003330 0.000027 0.004181 0.009595 -0.000667 
66 0.009598 -0.000647 -0.002269 -0.006970 -0.007998 0.003216 0.003231 0.009325 0.007550 0.009834 -0.001094 0.004781 0.001555 -0.001732 0.002569 0.000959 0.004330 -0.007420 -0.002967 0.004422 -0.008813 0.001834 -0.009890 0.006732 0.002438 0.000092 -0.005386 0.004453 0.003396 0.006417 0.008355 -0.000853 0.004374 0.004870 -0.005853 -0.002624 0.000684 0.004515 -0.000197 -0.009298 -0.007362 -0.000586 -0.001866 -0.004311 0.005549 0.008629 0.006954 -0.006102 0.009730 -0.003777 
67 0.009074 -0.008108 0.000493 -0.008742 -0.007692 0.001234 -0.001849 0.007798 0.009467 -0.001513 0.008015 0.004903 -0.001635 0.005211 0.000399 0.006638 0.001813 0.007971 -0.009385 0.002064 0.007625 -0.001671 -0.001024 0.005244 0.008613 -0.007153 -0.009207 -0.004760 0.002589 -0.006913 -0.003619 -0.003885 -0.007635 0.005613 -0.008950 -0.003068 0.005755 0.001986 -0.004886 -0.008247 -0.004429 -0.001230 -0.006116 -0.000360 -0.000375 -0.002474 -0.002325 0.004655 0.000729 0.004817 
68 0.001797 -0.004137 0.006697 -0.007794 0.006564 0.007324 -0.009659 -0.003745 -0.002712 -0.001898 0.009473 -0.001473 0.004281 -0.007742 0.006906 0.005584 0.002856 -0.001144 -0.009548 0.008988 -0.006674 -0.008042 -0.007076 0.005303 0.001003 -0.009374 -0.007866 -0.003910 -0.003800 -0.001077 -0.009105 0.007913 -0.005771 0.005912 -0.002980 -0.007667 -0.004598 0.005654 0.003320 0.005913 0.005032 -0.002787 0.007608 -0.009784 -0.006569 0.004651 -0.007303 -0.008195 -0.004087 -0.002970 
69 0.006400 0.002240 -0.007211 0.008413 0.001528 -0.001914 0.009373 -0.002138 -0.004106 0.000905 -0.004025 0.009441 -0.007689 -0.002741 0.007910 -0.007790 -0.001408 -0.001290 0.005490 0.000234 0.007548 0.001822 -0.005974 -0.007426 -0.003007 0.008156 0.003832 -0.006707 0.009738 0.004275 -0.009780 -0.008546 -0.006403 0.001742 -0.006498 0.001118 0.001381 -0.002881 -0.001008 0.001349 -0.009096 -0.008031 -0.002999 -0.003792 0.004977 -0.007146 0.002842 -0.005241 -0.008586 -0.008663 
70 -0.003173 -0.008936 0.003027 0.003980 0.004270 0.004185 -0.002372 -0.007655 -0.004518 -0.001814 -0.001971 0.002996 0.005776 0.002127 -0.007956 0.007494 -0.004535 -0.009927 -0.007515 0.002403 0.009861 0.001085 -0.002836 0.009284 -0.000724 -0.000774 0.008893 -0.005300 -0.000977 -0.006442 -0.004514 -0.009786 0.009415 -0.001856 0.009755 -0.007612 -0.004236 -0.007953 0.009512 0.002785 0.008383 -0.000672 -0.002430 0.007967 0.002583 0.009051 0.001741 -0.000504 -0.001322 -0.004722 
71 -0.005162 -0.006064 0.001980 -0.002929 -0.005327 -0.007152 0.002802 -0.001507 0.004059 0.002796 -0.003545 0.008607 -0.009191 -0.004659 0.003253 0.001474 0.007734 0.007046 0.008508 -0.003842 -0.007353 -0.000526 0.002533 -0.003279 0.008361 -0.000813 0.000640 -0.007775 0.002689 -0.002252 0.003141 -0.003267 0.008442 -0.008281 -0.004651 0.009308 0.003433 0.002663 0.007577 -0.005989 -0.009525 -0.002859 -0.004863 -0.000094 -0.002619 0.006718 -0.001659 0.001054 -0.003038 0.007954 
72 0.002502 -0.003481 0.007032 0.002414 -0.002067 -0.009637 -0.009598 -0.003342 -0.000054 -0.008351 -0.005114 0.002250 0.008854 -0.005562 -0.006705 -0.004248 0.009968 -0.002206 0.003443 -0.001273 -0.006398 0.005779 0.008141 -0.002263 -0.004932 0.007455 -0.004797 0.004345 -0.005321 -0.003116 -0.002559 -0.004887 -0.002253 -0.006869 -0.007333 -0.008397 -0.005416 0.000256 0.003693 0.000379 0.000503 0.007323 -0.001667 -0.006998 -0.004183 0.008393 0.009399 0.006035 0.005837 0.002530 
73 -0.005297 0.001042 0.000878 -0.006204 -0.002943 0.004583 -0.003750 -0.008747 0.004276 0.008222 -0.007733 0.008965 0.009169 0.008521 -0.005759 0.005992 0.009551 0.007043 -0.007516 0.006399 0.008234 -0.009651 0.002310 -0.000753 -0.006970 -0.009996 0.004030 -0.001402 -0.003248 0.002569 0.002957 0.003517 -0.002787 0.009606 0.009403 -0.001936 -0.002776 -0.002321 -0.001318 -0.008698 0.004598 -0.001651 -0.008895 -0.002705 -0.007852 0.008179 -0.008015 -0.004897 -0.002314 0.008732 
74 -0.008365 0.008791 0.004025 0.006570 0.005366 0.007420 -0.001022 -0.006744 -0.006508 0.005053 -0.004644 0.005352 0.001326 0.000753 -0.009028 0.004420 -0.000822 -0.001419 0.008640 -0.002976 0.002363 0.007601 -0.003830 -0.005274 -0.008807 0.001875 0.006376 -0.005913 -0.009021 0.000465 -0.002929 -0.003329 -0.007965 0.007434 -0.008934 0.009041 0.009673 -0.008156 -0.003825 0.002758 0.004205 0.007758 0.005209 -0.005615 0.000945 -0.005761 -0.004018 0.005485 -0.009796 -0.004651 
75 -0.007772 0.002620 0.007295 0.000150 -0.001008 -0.002647 -0.007469 0.002705 -0.008145 0.006245 -0.008777 0.002076 0.007706 -0.009139 -0.006315 0.002326 0.009357 -0.002238 -0.004771 -0.007482 0.004622 -0.001490 -0.003832 0.006714 0.006313 0.009668 0.001814 0.003683 -0.007758 -0.007201 0.002479 0.008366 0.005222 -0.005534 -0.006523 0.008949 -0.006935 0.006230 -0.004882 -0.000215 0.008583 0.004654 -0.007283 -0.000063 0.009590 -0.008700 -0.003414 -0.006531 -0.001102 -0.007268 
76 0.002036 0.009442 0.004319 0.000512 0.009381 0.001919 -0.001334 -0.008799 0.003933 0.009962 -0.000248 0.006364 -0.003995 -0.002366 -0.009612 -0.007439 0.000908 -0.006003 -0.001613 0.001357 -0.001044 -0.006885 -0.003438 0.009312 -0.004539 -0.005951 0.002725 -0.002010 0.000736 0.000862 -0.000311 -0.006047 -0.009907 0.002616 -0.004733 0.008764 0.003844 -0.006626 0.002270 -0.001015 0.007302 -0.007802 -0.001489 0.006178 -0.009220 0.003152 0.006804 -0.003093 0.009590 -0.004704 
77 -0.005041 0.002733 0.004044 0.002695 -0.004210 0.000220 -0.000544 0.004410 0.007110 -0.009071 0.006136 0.004504 -0.008270 0.001424 -0.000601 -0.007961 -0.002536 0.003266 -0.000443 0.001079 -0.002877 -0.006982 -0.008079 -0.009315 0.008521 -0.007757 0.006805 0.004919 -0.005530 0.007503 -0.000479 -0.007155 0.002781 -0.009640 -0.009618 0.008525 0.006269 -0.002622 0.004700 -0.008979 0.002745 -0.009881 -0.007213 0.004397 -0.004979 -0.004856 0.009956 -0.002287 -0.009089 0.004018 
78 -0.003480 0.005034 0.003227 -0.006699 -0.002209 0.005421 0.009781 0.004557 0.004081 0.002937 -0.006614 0.004348 -0.009297 0.006644 0.001854 0.004237 -0.002030 -0.009395 0.007997 0.000786 -0.008806 -0.006117 0.009630 -0.004442 0.000687 0.000539 0.009562 -0.004885 0.001763 -0.000363 -0.004391 -0.008980 -0.005267 0.005239 0.000580 -0.000166 0.004910 -0.003593 0.002291 0.003122 0.002606 -0.002796 0.003552 0.007444 0.003135 -0.003307 -0.007824 0.004364 0.006808 0.008935 
79 0.000976 -0.009555 -0.001062 -0.007006 0.007764 0.007248 0.009838 -0.007068 -0.004647 0.001336 -0.005181 -0.002189 -0.008444 0.004272 -0.005804 0.001694 0.009184 -0.007383 -0.006721 0.003643 0.006050 0.007936 0.002382 0.007722 0.004968 -0.003210 -0.003184 0.002992 -0.006252 -0.009259 -0.003104 0.003515 0.005204 0.006353 0.007932 0.008355 -0.002851 0.005187 0.000238 0.001574 -0.007606 -0.006194 0.009126 -0.007765 -0.001247 0.003773 -0.005092 -0.005601 0.009037 -0.008349 
80 0.002898 0.007130 0.001060 -0.000999 0.003407 -0.005511 -0.002366 -0.007614 -0.008252 0.005540 0.006570 0.003368 0.008234 -0.005655 0.000683 0.008511 -0.001824 -0.000033 -0.002216 0.009377 -0.008112 0.006467 0.000685 -0.007473 0.004683 0.002909 -0.002800 0.009525 -0.003129 0.003354 0.000141 -0.003066 -0.006233 0.006866 0.007320 -0.003685 0.005682 -0.002493 0.001550 -0.005769 0.007930 0.004339 -0.009357 0.002245 0.000822 0.001425 0.007411 -0.003081 0.009670 0.007828 
81 0.009669 -0.000184 0.004789 0.007610 0.000226 -0.002502 0.001489 0.009832 0.006898 0.001527 0.000084 0.008559 0.002495 0.008467 0.005886 0.002852 0.004830 -0.000121 0.009208 -0.003225 -0.003284 0.002327 0.005361 -0.000612 0.005965 0.007372 -0.005341 0.004756 0.005390 -0.008423 0.002415 -0.008061 -0.007197 -0.003495 -0.001061 0.005002 -0.008983 0.008719 -0.000454 -0.006994 0.007845 -0.000221 0.004547 -0.009986 -0.003902 0.006250 -0.000745 -0.004911 -0.006411 0.009694 
82 -0.006017 -0.007708 0.003132 -0.003327 0.004043 -0.009313 -0.007463 -0.001251 0.009747 0.004336 -0.005381 -0.007514 -0.003591 -0.007699 0.007188 -0.000555 -0.005660 -0.001355 -0.006942 0.006189 -0.001147 -0.007570 0.000042 0.004281 -0.009740 0.007719 0.000952 -0.009716 -0.006125 0.003575 -0.006401 0.005758 0.000009 0.004060 0.000798 -0.002732 0.003975 -0.001764 -0.009641 -0.003624 0.006085 0.000166 -0.004903 -0.000356 -0.008347 0.008912 -0.007177 0.008634 -0.009010 0.008537 
83 0.006349 0.009910 -0.000591 0.008104 0.003489 -0.004967 -0.002777 0.001674 -0.002945 0.000567 0.009744 0.008311 0.004859 0.008073 0.007284 -0.007923 0.009714 0.004114 0.005156 0.002035 -0.000568 0.000253 0.003673 -0.007754 0.006826 -0.006948 0.008147 0.001773 0.009708 0.004074 0.008890 -0.005320 -0.009109 -0.000119 0.001216 0.000028 -0.001813 -0.007965 0.005436 -0.008120 0.004409 -0.002900 0.006863 0.009298 0.007369 -0.003363 -0.004191 -0.003655 0.009880 -0.002790 
84 0.007588 0.002083 -0.000246 -0.009620 0.002511 0.000576 0.009804 -0.007290 0.005891 -0.009115 -0.002158 0.005763 0.008041 -0.002928 0.006682 -0.003899 0.004272 0.008202 0.004134 -0.004713 -0.005101 -0.001665 0.003012 -0.000117 0.005232 0.006534 0.001129 -0.008548 0.005585 -0.003138 0.001296 -0.003445 -0.008730 -0.001618 -0.008674 0.006757 0.002599 0.005156 0.004033 -0.001382 0.004885 -0.003754 -0.002773 -0.006297 0.008441 -0.004285 -0.006277 -0.001428 0.008579 -0.007375 
85 0.001331 0.004789 0.005612 0.001040 -0.007134 0.008916 0.004851 0.000020 0.006138 -0.007484 -0.003390 -0.006370 0.003962 0.002151 -0.003799 -0.009069 -0.005851 0.009384 0.003937 0.005986 0.009511 -0.009223 0.005129 -0.002143 0.007862 0.007892 -0.009908 -0.009392 -0.007986 0.007293 -0.005864 -0.006701 0.009778 0.000541 -0.002426 -0.000005 -0.006031 0.004200 0.005720 0.009757 0.002398 -0.000169 0.008885 0.006648 -0.002122 -0.006003 0.002383 -0.000270 0.008221 -0.001739 
86 0.006525 0.003066 0.006240 0.009185 0.006624 -0.004281 0.009747 0.008332 -0.007008 0.001750 0.001555 0.002263 0.000942 -0.009777 0.009476 0.002543 -0.009213 -0.004800 0.006323 0.005733 0.007839 -0.004257 0.009908 -0.006605 0.002411 -0.004085 0.003044 -0.007907 0.009814 0.004779 -0.006457 -0.006612 -0.009637 -0.003604 -0.005782 -0.006157 0.009368 0.009830 0.002881 -0.004979 -0.002858 0.009143 0.002346 0.003484 0.008999 0.003397 0.000423 -0.009205 0.005250 0.006655 
87 0.009926 -0.006484 -0.008792 -0.002021 0.008668 -0.006790 -0.002814 0.001433 -0.000540 -0.003562 -0.001504 0.006078 -0.009885 -0.005235 -0.004550 0.005976 -0.006553 0.004751 -0.006638 0.000191 0.007266 0.007961 0.002543 -0.007215 -0.005613 -0.009045 -0.001694 -0.007179 0.002620 0.005297 0.000963 -0.005640 0.004780 0.007549 -0.004172 -0.003534 -0.001323 -0.000726 -0.006788 0.003200 0.007126 0.007034 0.008428 0.003626 -0.002062 0.002392 0.001788 -0.008194 0.003925 0.001909 
88 -0.001394 0.006803 0.002901 0.007150 0.009193 -0.007322 -0.002322 0.004676 0.008862 -0.001505 -0.003932 0.006049 -0.002074 -0.001685 -0.009117 0.007832 0.001697 -0.008798 -0.000063 -0.008412 -0.009513 0.001218 0.006042 0.003880 -0.000391 -0.002575 -0.002990 -0.003731 0.009376 -0.006114 0.005654 0.005318 0.005100 0.009664 0.009786 -0.007411 -0.002906 0.008820 -0.007781 0.004646 0.000669 0.000418 0.000765 -0.006949 -0.003861 -0.001480 0.008237 -0.005634 0.008816 0.002188 
89 -0.007553 -0.009847 0.009012 -0.004514 -0.003792 0.006975 -0.007959 0.007474 0.007332 -0.003604 -0.001786 -0.007784 -0.001368 -0.005024 -0.007156 0.008775 0.007921 0.004279 0.006244 0.001213 -0.001990 -0.009133 -0.006274 -0.001408 -0.003288 0.006303 -0.004398 -0.005025 -0.003160 0.007149 -0.002815 0.009425 -0.003793 -0.005033 0.008788 0.006003 -0.002376 -0.003679 0.005723 -0.006227 0.008904 0.002773 0.008302 0.006797 0.002861 -0.009116 0.001838 0.004137 -0.002695 0.002218 
90 -0.003356 0.009856 -0.004949 0.003338 0.008032 -0.006984 0.003909 0.005805 -0.003685 0.007680 -0.003306 0.006182 0.006804 -0.007089 -0.008784 0.006032 0.009813 -0.007229 -0.009710 -0.008083 0.000654 -0.003678 0.001727 -0.004601 -0.000360 -0.002373 -0.001661 -0.006958 -0.007917 -0.004252 -0.002060 0.006408 0.008295 -0.005252 0.003342 0.002058 0.003589 0.003690 0.002357 -0.008443 -0.001722 -0.003365 0.007797 -0.008535 -0.002327 -0.007353 -0.002524 0.003346 -0.007911 -0.004212 
91 -0.005794 -0.006237 -0.003164 -0.004879 0.005799 -0.005724 -0.007772 0.004707 0.005068 0.001451 0.003577 0.003609 0.009825 -0.003153 0.001195 -0.004109 0.002883 0.007029 0.000396 -0.009386 -0.007946 0.003559 0.001490 0.001841 -0.009849 0.002998 0.009792 0.008634 -0.005014 0.006911 -0.004386 -0.004944 0.009372 0.001858 -0.005732 -0.009831 0.001121 -0.000597 0.006066 0.008037 0.003046 -0.003891 -0.003679 0.007721 -0.007040 -0.006463 -0.004655 -0.006717 -0.006326 -0.001750 
92 -0.001548 -0.006212 -0.006999 0.001811 0.005953 0.003296 0.003754 0.000782 0.003162 0.000870 0.003746 -0.003275 0.000389 -0.009427 -0.004212 -0.003796 -0.007051 0.001468 0.007693 -0.009220 0.001154 0.007617 -0.007725 -0.002983 -0.009685 0.008082 0.007344 -0.003524 -0.009254 0.006926 -0.004285 -0.004279 -0.002241 -0.006789 0.005198 0.006313 -0.008334 0.001001 0.008608 0.004815 -0.002219 0.009356 0.003755 -0.007210 0.006415 0.002341 -0.006546 -0.003200 -0.007119 0.009017 
93 0.005516 0.008407 -0.002509 0.003447 -0.007247 0.004175 0.005559 0.004693 -0.007021 0.005666 0.007396 -0.003181 0.009006 -0.000559 -0.001685 0.008885 0.008646 -0.002935 -0.001371 -0.005044 0.004711 -0.004902 -0.006350 -0.005907 -0.004985 -0.004896 -0.006310 -0.009641 0.002370 0.003645 -0.005937 -0.007184 -0.005412 -0.007716 -0.004921 -0.004473 0.004482 -0.002417 0.002053 -0.002445 0.009864 0.001105 0.005297 0.002961 -0.006453 0.009412 0.000122 0.000809 0.003343 -0.005934 
94 0.006842 0.005161 -0.007935 -0.008369 -0.009231 -0.004921 -0.002475 0.003669 0.002216 -0.005374 0.002536 -0.003259 -0.003506 -0.007135 -0.005090 0.002411 -0.006083 0.003857 0.007460 -0.002758 -0.000203 0.006666 -0.002001 0.002794 0.004447 0.005354 0.009338 0.005633 0.003179 0.008983 0.009290 -0.002682 -0.003695 -0.008384 -0.009332 -0.005586 0.009138 -0.007685 -0.008715 -0.001517 -0.008009 -0.004856 -0.006048 -0.003913 0.000176 0.009164 0.006483 -0.001212 -0.005995 0.008437 
95 0.001689 0.003150 -0.001208 -0.007973 -0.002617 -0.009266 0.004847 0.003996 -0.003621 0.008103 0.007485 -0.006593 0.006487 0.006820 0.007018 -0.005679 0.000522 0.003448 0.008757 0.005802 -0.003705 -0.000453 0.003016 -0.008089 -0.003382 0.001682 0.005107 0.001712 0.009305 0.001415 -0.004657 0.009267 0.007167 -0.004692 -0.000964 -0.006361 0.008018 0.004923 0.006498 -0.001111 -0.005330 -0.003176 -0.006958 -0.005919 -0.005065 0.002572 -0.001019 -0.006724 0.001625 -0.001269 
96 0.009626 -0.004462 -0.007446 0.006862 -0.004708 0.004929 -0.009466 -0.006472 -0.008711 -0.009489 0.003377 -0.009708 -0.002069 0.006347 0.003896 -0.006284 0.000530 -0.008500 0.009903 0.005363 0.009398 -0.009969 0.004211 -0.008205 -0.000151 -0.008996 -0.005368 0.004574 -0.007806 0.008481 -0.006021 0.000264 -0.008254 0.001524 0.000064 0.000426 0.008817 -0.005804 -0.004300 -0.008376 -0.001279 -0.004440 0.008699 0.005419 0.001769 -0.000323 -0.008126 -0.001626 0.003274 0.005611 
97 0.003038 -0.007948 -0.006451 -0.002576 0.005002 -0.006985 0.007905 0.004178 0.005579 -0.007174 0.006656 -0.000064 -0.002418 0.008047 -0.004885 0.003761 -0.001176 0.000241 0.003593 -0.000286 -0.007884 -0.004030 0.007402 -0.003141 0.005272 0.006796 0.006857 0.009258 -0.008897 0.009283 0.007268 -0.004027 0.007422 0.004992 -0.001051 0.001067 -0.002957 0.000486 -0.002788 -0.006398 0.007776 0.007328 0.002369 0.007641 -0.007564 0.002080 -0.000266 0.002247 0.008834 0.006305 
98 -0.000382 0.001482 -0.000218 0.006565 -0.002666 -0.005592 -0.006906 -0.005577 -0.006805 -0.004912 0.001581 0.006441 -0.007488 0.002584 0.003057 0.004181 0.005599 0.000959 0.000334 -0.005793 0.007769 -0.000724 0.001224 0.008080 -0.000668 -0.008404 -0.001461 0.002364 0.005603 -0.003017 -0.009907 -0.001380 -0.003107 -0.000501 -0.001302 0.003411 0.008516 0.008206 -0.007834 0.008300 0.000782 -0.002832 0.003310 0.009849 -0.000994 0.005445 0.009942 0.009621 -0.006500 -0.002898 
99 -0.005125 -0.005822 -0.000425 0.001200 0.005921 -0.004918 -0.002455 -0.008199 -0.004107 0.008897 -0.007278 0.007970 0.002603 -0.002816 -0.004581 -0.006233 0.008864 0.006507 0.000947 -0.001745 0.002488 0.008427 0.009620 -0.004502 -0.003712 -0.000493 0.006750 0.004557 0.008077 0.001310 0.002650 0.009494 0.000666 0.000398 -0.007368 -0.000627 0.001868 0.008334 -0.002992 0.008257 0.004496 0.001680 0.001091 -0.004794 0.006363 0.001999 -0.004806 0.004284 -0.009720 -0.004148 
100 -0.005371 0.004554 0.004061 -0.005196 -0.000292 -0.009922 0.000517 -0.004585 -0.004255 -0.000082 -0.002538 -0.000750 -0.006949 -0.001863 -0.002293 -0.007131 0.006938 -0.006203 0.009066 0.007836 -0.002279 0.000962 0.004350 0.000713 -0.009290 -0.001308 0.001373 -0.006937 -0.003781 -0.008948 0.002946 -0.008552 0.009561 0.007103 -0.003117 0.007431 -0.008954 0.000908 -0.004005 -0.002426 0.005989 -0.008471 -0.001904 0.003439 0.004701 0.003029 0.005998 -0.008410 0.002495 0.004471 
101 0.007513 -0.006412 -0.000316 0.009917 -0.004547 0.005996 0.001580 -0.001571 0.007632 -0.009622 -0.001505 -0.005930 0.006862 -0.006706 0.005742 0.005902 0.000955 0.006308 0.003634 0.007988 0.002724 0.005982 -0.002517 -0.000609 0.009981 -0.006122 -0.002399 0.004172 0.005539 -0.003440 -0.000698 -0.008605 -0.002790 0.005590 0.002897 -0.004878 -0.002193 -0.002470 -0.006301 -0.005585 0.005142 -0.006058 0.002020 -0.006663 0.002028 0.001389 0.003174 0.000951 -0.003723 -0.008565 
102 -0.002528 -0.008682 0.000703 0.000640 -0.009773 0.003502 -0.006884 -0.009432 -0.008248 0.001565 -0.003670 0.007781 -0.002642 -0.005431 -0.001843 0.003842 0.007360 -0.003423 -0.008589 -0.004687 0.007068 0.006651 -0.006098 0.003756 0.006796 0.008855 0.008444 -0.004265 0.001855 -0.007751 0.002850 0.002812 -0.007440 -0.009102 0.009931 0.001548 0.004221 0.003863 0.007501 -0.006493 0.007152 -0.004793 -0.001629 0.005252 -0.003335 -0.006007 -0.009645 0.008344 -0.006927 -0.005718 
103 -0.003736 -0.000654 0.001687 -0.004862 -0.006088 -0.000179 -0.007179 0.000622 0.006110 -0.003669 0.001787 -0.000202 0.000672 0.000439 0.008898 0.006728 -0.009590 0.008706 -0.000535 0.000475 -0.006865 0.002697 0.003802 0.005100 -0.008338 0.008972 -0.002778 0.009666 -0.006198 -0.000904 0.000035 0.008237 -0.007632 0.009629 -0.002444 -0.000126 0.005172 0.002135 0.000096 0.008640 -0.004974 0.003177 0.002969 0.003597 0.009744 0.004315 0.006486 -0.001192 0.002138 0.002115 
104 -0.004041 -0.006664 -0.009980 -0.001864 0.001703 -0.008758 -0.003797 -0.001057 -0.000972 0.001590 0.008499 -0.003902 0.008248 -0.001558 -0.000279 0.006162 -0.005325 0.000860 0.007681 -0.009300 0.008622 -0.007093 -0.004808 -0.003728 0.005400 0.003646 -0.009933 -0.005558 0.005323 0.007138 0.005117 0.001773 -0.006296 0.002447 -0.001845 -0.000174 0.000853 -0.006365 -0.008006 -0.004836 0.002085 0.009764 -0.005554 -0.000650 -0.002289 0.004897 -0.001675 0.008946 -0.006956 -0.001903 
105 0.001441 0.005514 -0.001603 -0.006575 0.006608 -0.004382 0.009082 -0.000055 0.001639 -0.009181 0.005411 -0.008282 -0.000655 0.007681 -0.007302 0.007809 -0.002460 0.007765 0.001254 -0.007722 -0.000965 -0.002365 0.006392 -0.005812 -0.008356 0.008852 0.008424 0.007602 0.008178 -0.002021 -0.007336 -0.008417 0.006451 0.006579 0.009423 -0.009807 0.009274 0.001214 -0.005986 -0.007506 0.004461 -0.006554 0.006749 -0.007451 0.004824 -0.000161 -0.007058 0.009420 0.008174 0.001955 
106 0.002904 0.007170 -0.002674 0.006355 -0.008052 -0.005138 0.000091 0.004604 0.000387 0.006557 0.009282 -0.006738 -0.006467 0.001319 0.002711 -0.006107 0.001698 0.003210 0.003190 -0.006941 0.000195 0.001292 -0.001467 0.002323 0.009337 0.009629 0.001552 -0.001753 -0.005564 0.007281 -0.009941 0.002394 0.005804 -0.001687 0.006867 0.001326 -0.001245 -0.008214 -0.000212 0.006606 -0.006400 0.001762 0.001635 -0.005205 -0.004348 0.007306 -0.009780 0.007458 -0.004777 -0.007522 
107 0.008356 -0.008845 0.007627 0.006341 0.003856 -0.002550 -0.006825 0.002959 0.009531 0.002906 -0.002820 0.001393 0.003194 0.009084 0.009955 0.005705 0.007658 0.002547 0.006812 0.004959 -0.009265 -0.005143 0.008063 -0.006783 0.005239 0.002578 -0.000979 0.009542 0.008980 0.007272 0.009999 -0.002005 0.004772 -0.004499 -0.003691 0.007640 0.000428 -0.001173 -0.001737 -0.007461 0.008759 -0.006186 0.001174 -0.008246 0.007579 0.002023 -0.004645 0.009348 -0.000301 -0.009983 
108 -0.003882 -0.005617 -0.007067 0.009359 0.003776 0.000923 0.000092 -0.003388 0.003640 0.008028 -0.001010 -0.006664 0.006024 -0.000237 -0.007562 0.006096 0.006240 0.005189 0.008250 0.006454 0.004601 -0.001631 -0.000762 -0.009028 0.006418 -0.001635 0.003214 0.001212 0.002006 0.009240 0.002990 0.003738 0.006675 0.000057 0.006380 -0.009889 0.000739 0.004878 0.006196 -0.003105 0.009509 0.002765 0.000250 0.005651 0.003300 -0.002220 -0.008646 0.002942 -0.002578 -0.001012 
109 0.007322 0.000331 -0.007811 0.000449 0.000966 -0.005620 -0.007087 0.001227 -0.009902 0.006652 0.009906 0.005383 -0.002469 0.003709 -0.001519 0.001981 -0.008923 -0.002887 -0.001049 0.005083 0.003549 0.003428 -0.003372 -0.006249 -0.007241 0.004215 0.001825 -0.007952 0.001520 0.006038 0.009854 0.009037 -0.002355 0.000458 0.001027 -0.001221 -0.006055 0.004038 0.000657 0.000338 0.008233 -0.001659 -0.000944 -0.002224 0.003322 0.009930 -0.008462 0.000155 0.007025 -0.009635 
110 -0.001586 0.001538 -0.007847 -0.003789 0.004998 0.000987 -0.003481 0.009030 0.001600 0.002566 0.002936 -0.004616 0.003535 -0.004665 -0.000783 0.006835 -0.008885 -0.006641 -0.001827 -0.000053 0.009651 -0.004301 -0.002382 -0.003719 0.009457 0.006418 0.000363 0.002400 0.005845 -0.005421 -0.005778 0.009867 -0.000873 -0.005757 -0.007994 -0.004756 -0.005383 0.004474 -0.008471 0.000094 0.002626 0.009333 -0.004398 -0.009021 -0.001533 -0.002116 -0.007961 -0.000538 0.002452 0.004189 
111 -0.006348 0.002105 -0.000105 0.007310 -0.001747 0.000470 0.001107 -0.008689 0.008654 0.001121 0.001401 0.005252 -0.007331 -0.004381 0.001090 0.003198 0.003110 0.000528 0.005486 0.004210 -0.002211 -0.002591 0.004901 -0.007649 -0.000482 -0.007175 -0.005352 -0.003317 -0.003889 -0.001661 -0.004960 -0.008731 0.000380 -0.009487 -0.008611 -0.004828 -0.009863 -0.009090 -0.005992 -0.007547 0.008195 0.006092 -0.001792 -0.007824 0.002366 0.007621 0.004303 0.008403 0.005463 -0.007939 
112 -0.002395 0.000196 -0.004702 0.000973 0.008427 -0.008382 -0.005316 0.000921 -0.007920 -0.008268 -0.008566 0.003466 0.008878 -0.005401 -0.001641 0.005171 0.004133 -0.000717 -0.006728 0.007599 0.008158 0.009846 -0.001014 -0.002688 -0.003735 -0.004650 0.003314 0.005873 0.008766 0.009858 -0.000933 0.009844 -0.009026 -0.007567 0.004058 -0.009212 -0.006798 0.007136 0.001100 -0.004734 -0.009238 0.003031 -0.001994 -0.005157 0.003966 -0.005821 0.007587 0.006079 -0.001873 -0.000356 
113 0.007657 -0.009461 0.003558 0.003488 0.001027 -0.005217 -0.004429 -0.005226 -0.004489 -0.009625 -0.005521 0.007563 0.003920 -0.006123 0.005593 0.000919 0.004068 0.006852 -0.000773 -0.001096 -0.001234 -0.004138 -0.009307 -0.009420 -0.004172 -0.007530 0.000304 -0.009991 0.008066 -0.006762 -0.006628 -0.003744 -0.006708 -0.000272 0.000209 -0.006619 -0.005682 -0.001496 -0.003872 -0.009552 -0.001042 0.001127 0.001442 0.001518 0.000024 0.004160 0.001462 0.005655 -0.004672 0.009167 
114 0.006503 0.006921 0.007682 0.002708 -0.008125 -0.005622 0.004901 -0.003653 -0.002108 0.002090 -0.000206 0.006646 0.009866 0.009117 -0.009824 -0.004832 -0.001891 -0.000476 -0.001141 0.008474 -0.002065 0.002372 -0.006345 -0.001871 0.009655 -0.008277 0.007377 0.000694 -0.001418 0.006642 -0.002162 -0.002269 -0.004972 -0.008811 0.007849 -0.004196 -0.005693 -0.005573 0.005223 0.006474 -0.003270 -0.009580 0.002773 0.006304 0.007610 -0.001772 -0.001689 -0.003143 -0.002740 0.001916 
115 -0.005350 0.004695 0.000991 -0.009455 -0.000397 0.001381 -0.000883 -0.001822 0.005981 0.003477 -0.003049 0.003878 -0.008403 -0.007455 0.004803 -0.008294 -0.000735 -0.004851 -0.002012 -0.009274 -0.003205 0.002851 -0.003182 -0.005000 -0.002999 -0.007788 0.006604 0.003590 -0.002304 0.004796 -0.002340 0.000559 0.001691 0.007166 0.005298 -0.005031 -0.003200 -0.009117 0.009830 0.000883 -0.004166 -0.007490 -0.003430 -0.002636 -0.003393 -0.006390 -0.004171 0.008474 0.001931 0.000745 
116 0.002920 0.003275 -0.000383 0.005478 -0.001844 -0.004170 0.002480 0.004370 0.006848 0.005201 0.008331 -0.001014 -0.000690 -0.004549 -0.000018 -0.004113 -0.009146 -0.004357 0.005247 0.006635 0.001793 -0.000161 -0.003062 0.007793 -0.002561 0.007101 -0.007133 0.000924 0.008104 0.001491 -0.004153 -0.007409 0.009102 -0.007926 -0.006310 -0.005645 0.000743 -0.007090 -0.000792 0.002779 0.008342 0.003062 -0.009785 -0.000575 0.002211 0.006594 0.009523 -0.009143 -0.002339 -0.007433 
117 0.004944 0.008637 -0.004994 -0.004956 0.009291 0.009326 -0.000442 -0.006913 0.000377 -0.005511 0.001630 -0.009241 0.001013 -0.009314 -0.003467 -0.002878 -0.000988 0.009482 0.004581 0.006240 0.007187 0.007437 -0.008914 -0.002826 0.003350 0.006115 0.006361 -0.006013 -0.009686 -0.007922 0.005718 0.005741 -0.004108 -0.003111 0.009469 0.006499 -0.007105 -0.002890 0.002927 -0.004677 -0.000864 -0.005697 -0.003595 -0.003723 -0.002571 -0.004968 0.005215 -0.001579 -0.004416 -0.009142 
118 0.009669 -0.004180 0.006415 -0.001655 -0.004919 0.007535 0.007735 -0.000946 -0.008239 -0.002371 0.002355 -0.000451 -0.004976 -0.004836 -0.001911 -0.008609 0.005182 -0.005796 0.007748 -0.008857 0.007546 -0.006190 0.009146 0.000368 -0.007570 -0.001956 0.005095 0.005628 -0.004854 -0.004030 0.003406 -0.001515 -0.003993 0.001650 -0.003106 -0.004497 0.000325 -0.005854 0.003370 -0.001756 -0.001588 -0.002478 0.005646 -0.006731 0.005581 0.000838 -0.008464 -0.007857 0.002145 -0.001841 
119 -0.006148 -0.008574 -0.006584 0.008546 -0.009594 -0.007318 0.009706 -0.003938 0.004011 0.002473 0.006328 0.009769 0.002479 -0.007638 0.003595 0.003730 -0.001378 -0.001089 0.006819 -0.002992 -0.009745 0.003683 0.006312 -0.006336 0.000187 -0.006760 -0.002612 0.002762 -0.003766 -0.000855 0.000358 -0.001636 -0.008795 -0.002041 0.000535 -0.000468 0.002916 -0.008753 0.008231 -0.009671 -0.005823 0.005569 -0.001240 -0.000182 -0.007199 -0.007511 -0.007567 0.002060 -0.008399 0.008570 
120 -0.005437 -0.003881 0.008389 -0.004627 -0.004537 0.006057 0.005978 -0.000539 -0.009556 0.000936 -0.007819 -0.007603 -0.000179 -0.005181 -0.000191 -0.009258 0.008904 0.006768 0.006675 -0.003939 0.008007 0.000847 -0.004407 -0.005085 -0.007559 0.006117 -0.005627 -0.001134 0.002521 -0.003360 -0.004171 0.004478 0.003557 -0.008520 -0.002226 -0.006688 0.005863 -0.005301 0.003019 -0.008069 0.004751 -0.004640 -0.000622 -0.008102 0.000533 0.007524 -0.000338 0.009776 -0.001477 -0.009745 
121 0.001685 0.007126 0.009032 0.007614 0.008259 -0.009489 0.007373 0.008665 0.007195 -0.008507 -0.006141 0.007470 -0.008692 0.006636 -0.006199 0.003092 -0.001591 -0.002498 -0.002487 -0.000408 -0.008690 -0.009348 0.000308 0.006034 -0.002175 -0.002350 0.002496 -0.003521 -0.009234 -0.004941 0.009392 0.009991 0.007945 0.004440 -0.008693 -0.009368 -0.007825 -0.007644 0.003555 0.007464 -0.008732 -0.009630 0.006447 -0.005450 -0.001964 -0.004956 0.005295 -0.009047 -0.009706 0.007941 
122 -0.009586 0.000735 -0.009149 -0.004377 -0.002886 -0.007043 0.007523 0.009652 0.005709 0.001684 -0.006880 0.006592 0.001511 0.005977 0.005455 0.008004 -0.005167 0.009900 0.007341 0.000452 0.000986 0.002513 0.006590 -0.004503 0.000284 -0.002119 -0.003985 0.009702 -0.001960 -0.004936 -0.006572 0.004630 0.004564 -0.001873 0.001642 0.006844 -0.004829 -0.003869 0.008470 0.007904 -0.009828 0.003139 0.006723 0.004375 -0.005120 -0.001786 -0.005786 -0.002181 -0.000392 0.005417 
123 -0.006243 -0.005202 -0.000332 -0.006188 -0.006838 0.006874 -0.004628 -0.002539 0.005244 -0.009389 -0.007966 -0.004574 0.007813 0.007570 -0.000035 -0.008230 0.003683 0.004314 -0.005522 -0.004445 0.000667 -0.007594 -0.004115 0.000844 -0.008423 0.008409 0.009500 0.006700 -0.005776 -0.006117 0.005634 -0.002815 -0.008577 -0.004607 -0.000400 0.001361 -0.009016 0.004501 -0.008290 -0.006709 0.005722 -0.002231 0.007278 -0.007963 -0.006552 -0.003241 -0.003385 0.001662 -0.003026 0.008035 
124 -0.004966 -0.008771 0.004114 0.003158 0.002848 -0.005201 0.007680 -0.001308 0.005369 -0.008564 0.005484 -0.003802 -0.007091 0.005202 0.000339 0.002239 0.000781 0.005160 0.000057 0.008378 0.009298 0.005371 -0.002549 -0.008823 0.003772 0.004898 -0.009667 -0.007801 -0.005485 0.007805 0.001516 -0.001994 -0.003159 0.003153 -0.001188 0.000160 -0.008939 0.005005 -0.004966 -0.004775 0.002488 -0.007577 0.007994 0.004762 0.001434 0.009470 0.000505 -0.004665 0.003213 0.005208 
125 0.000379 -0.001495 0.008136 -0.006299 0.000429 -0.009165 0.001516 -0.005990 -0.001533 -0.006112 -0.006334 -0.009803 -0.002693 -0.005774 -0.000103 -0.008673 0.004759 0.003412 0.000524 -0.008540 -0.006363 -0.001992 0.000857 0.009659 0.001754 -0.000423 -0.008790 0.009987 -0.008079 -0.005320 0.006895 0.001507 -0.008049 -0.005118 0.008224 -0.001719 -0.005342 -0.003257 0.000510 -0.000629 -0.002148 0.001828 -0.005934 0.008840 0.004348 -0.003303 0.004204 -0.004250 0.001956 -0.007086 
126 -0.008763 -0.005835 0.003491 0.007041 0.000476 0.003145 0.006763 0.000641 0.002235 0.006755 -0.005413 0.000276 -0.008174 -0.005944 -0.005226 -0.002491 0.009562 -0.000889 0.000136 0.008902 0.000754 0.000982 0.008487 -0.003983 -0.004283 0.003733 0.002639 0.005418 0.009761 -0.003576 -0.009597 0.008666 0.003199 -0.006880 0.004594 0.002325 0.001345 -0.007118 0.003023 0.007956 -0.005490 -0.000227 0.008503 -0.007878 -0.001992 0.002855 0.008846 0.006386 -0.007850 -0.003809 
127 -0.003135 0.007310 0.002249 -0.001156 -0.009628 -0.003543 -0.001383 -0.005125 -0.007820 0.000388 -0.003433 -0.006652 -0.009899 -0.009332 -0.003588 0.008325 -0.003052 0.003858 0.003464 -0.001132 -0.009467 0.001520 0.008036 0.009040 -0.006331 -0.009782 0.005439 0.007904 -0.005832 0.001513 -0.004012 0.009521 0.004843 -0.008032 0.004993 -0.007045 0.003506 0.003146 0.002767 0.002268 -0.007029 0.001609 0.004624 0.006522 0.001048 -0.001080 -0.009125 -0.000220 0.000551 -0.008359 
128 0.006833 0.001104 0.009293 0.001335 0.002811 -0.005442 -0.009915 -0.005437 -0.005879 0.009203 -0.009260 0.002890 0.001075 -0.000899 0.004072 0.002876 0.008987 0.003316 0.007891 -0.003914 0.008168 0.005910 0.005012 0.009080 -0.006069 -0.004054 0.003245 -0.006578 0.006588 0.007485 -0.004595 0.005674 -0.008547 -0.000409 -0.000698 0.007399 -0.001163 -0.003675 -0.002249 0.005159 0.004053 0.006751 -0.001437 -0.009483 0.007413 0.004931 -0.005450 0.000034 -0.005769 0.009928 
129 0.003526 -0.004725 -0.005182 0.005803 0.008303 0.002801 0.004487 0.001620 -0.003307 -0.005826 0.003551 -0.008560 0.001508 0.005957 -0.002678 -0.005673 0.000562 -0.000287 -0.003888 -0.005657 -0.003333 0.002005 -0.004766 0.000550 -0.002365 0.004394 -0.004999 0.007011 -0.003721 0.003443 0.000725 -0.007211 -0.009589 0.000714 0.002719 0.001945 0.002844 0.002771 -0.003706 0.003543 0.001390 0.001176 0.001764 -0.008355 -0.001138 -0.007509 0.004441 0.005313 -0.006928 -0.001722 
130 -0.005363 0.008611 0.006833 0.005100 0.007666 -0.009401 0.007957 0.004521 0.003839 0.005341 0.009257 -0.006899 0.008469 -0.008100 0.008546 -0.007596 -0.008131 -0.005662 0.008635 0.008992 0.009351 0.001717 -0.002663 -0.005572 0.001227 0.008100 0.007465 0.005274 -0.007190 -0.007450 -0.003168 0.003092 -0.005587 -0.000872 0.008249 -0.005554 0.001348 -0.003102 0.009529 -0.009102 -0.006073 -0.000078 -0.006514 0.009009 -0.002537 0.007262 -0.002070 -0.009657 0.002269 0.002981 
131 0.005676 0.001463 0.003657 -0.003859 0.004534 -0.006070 0.001940 0.000805 0.007319 0.004307 0.002429 -0.003964 -0.008159 -0.005843 -0.004562 0.005896 0.000915 -0.009958 -0.003721 -0.000553 0.002352 0.003524 0.005265 -0.009248 0.008964 -0.008833 0.007708 -0.001127 -0.001435 -0.005467 -0.006080 0.007873 -0.006033 0.000183 -0.000786 0.006815 0.002982 -0.000318 0.003903 0.009760 -0.001578 0.009590 -0.006702 -0.004228 -0.001899 -0.008529 -0.002286 0.008913 0.004831 -0.008112 
132 -0.007539 -0.001754 0.006424 0.002401 -0.002147 -0.002168 -0.004307 -0.000424 -0.000798 0.006734 -0.009550 0.004972 0.006820 0.009016 -0.006492 0.005154 -0.003979 -0.006261 -0.007321 -0.008316 0.007115 -0.005034 0.000776 0.001123 0.005417 -0.008241 -0.004389 -0.004964 0.001239 0.008181 -0.000003 -0.000017 0.009893 -0.006706 0.001746 0.007528 -0.008309 0.001162 -0.006329 -0.005766 -0.008054 -0.009154 -0.006415 0.001662 0.000970 0.006408 0.004299 -0.003625 -0.005923 -0.003087 
133 -0.006374 0.009936 -0.008422 -0.003579 -0.005621 -0.001093 -0.001213 0.003995 0.004371 0.004850 0.006014 0.003698 0.006413 -0.005671 0.008574 0.004593 0.008318 -0.001095 0.006779 0.000742 0.002900 -0.004858 0.005940 -0.008793 0.007969 0.004601 -0.003629 0.000051 0.006340 -0.006154 -0.006616 -0.003664 0.005823 -0.005562 -0.002709 -0.005874 -0.000767 0.002940 -0.006594 -0.007519 0.004380 0.000915 -0.007960 -0.004534 0.004079 -0.005075 0.008506 -0.007858 0.006141 -0.003468 
134 0.003116 -0.003428 0.003378 0.002300 0.001184 0.007818 -0.006396 -0.006209 -0.006979 0.009944 -0.000369 -0.002434 -0.006060 -0.007990 0.009271 0.005190 0.004254 0.008081 -0.004664 -0.006777 0.009275 -0.002782 -0.004360 0.003229 -0.000685 0.003484 -0.007005 0.001770 0.009688 -0.004059 -0.004787 0.000409 0.000704 0.008652 -0.004893 -0.004292 -0.002322 0.000680 -0.009511 0.009230 -0.009078 -0.003914 0.004172 0.007537 -0.004253 0.003934 0.003968 0.002191 -0.007533 -0.001714 
135 0.002690 0.009756 0.006394 -0.001796 -0.001850 -0.008206 0.007841 0.007751 -0.006839 -0.005134 -0.007881 -0.004010 -0.004465 -0.009464 -0.000458 -0.003018 -0.001915 -0.004633 -0.004578 0.009791 -0.001376 -0.009081 -0.009928 -0.001521 -0.000037 0.003758 -0.001196 -0.007892 0.009915 0.005443 0.001930 0.004741 0.001293 -0.007461 0.004763 -0.004560 -0.008090 0.006608 -0.002384 0.008269 0.004577 -0.005788 -0.004199 -0.007711 0.007108 0.006913 -0.000370 0.001562 -0.007686 0.001275 
136 -0.005583 -0.004848 -0.001992 -0.001141 -0.009528 -0.002879 0.007004 0.006228 0.003110 -0.003468 0.007112 -0.005055 -0.007357 0.007446 -0.008853 0.001573 0.004382 0.008927 -0.003080 0.007672 0.008641 0.005036 0.007243 -0.000193 0.000732 0.004837 0.009930 0.009540 0.000968 0.002392 -0.002208 -0.006567 -0.005339 -0.003236 0.008643 -0.006952 -0.007877 -0.007986 0.005295 -0.005051 0.008667 -0.002794 -0.004440 -0.009303 0.004606 0.006401 -0.007750 -0.003144 0.005251 -0.001337 
137 -0.006821 -0.005013 0.000917 -0.001946 0.001159 -0.008347 0.006914 -0.006364 0.004002 -0.001583 0.003556 -0.000528 -0.005479 -0.008159 -0.003845 -0.005375 -0.009472 -0.006512 -0.004977 0.003156 -0.005164 0.009920 -0.004526 -0.005871 -0.004743 -0.007301 -0.002181 0.001606 0.004604 -0.001611 0.007371 0.004649 0.000689 0.008551 -0.005558 0.007321 0.006325 0.009749 -0.005654 -0.001315 0.009324 -0.006456 0.007394 -0.007198 0.002499 -0.003501 -0.001101 0.008736 0.003663 0.000177 
138 -0.000826 -0.009451 -0.004373 -0.008860 0.003530 0.007303 0.006204 0.000951 -0.007719 -0.006939 0.008207 0.006172 -0.009260 0.006886 -0.000551 0.008366 0.009218 -0.007161 0.002741 -0.005905 0.003027 -0.000016 0.005897 -0.005079 -0.007518 0.002383 0.001728 0.007408 0.002893 -0.000902 0.008047 -0.006883 0.004574 -0.005808 0.007668 -0.001389 -0.007163 -0.003273 0.008401 -0.004547 0.007994 0.000766 0.003061 0.000205 -0.004641 0.005372 0.009459 -0.005570 0.005243 -0.005393 
139 -0.009593 0.004690 -0.007041 -0.002467 -0.006281 0.002548 -0.001180 0.008213 -0.007794 0.004566 0.008137 0.005709 0.003682 -0.007694 -0.008776 -0.005916 -0.009041 -0.007668 0.003394 0.002401 0.001849 -0.003795 0.004957 0.004721 0.009164 0.000489 0.001228 0.000108 -0.009282 0.006745 0.002518 -0.007376 0.009323 0.001536 0.004141 -0.008669 -0.007209 -0.003575 0.006407 -0.009707 -0.006065 0.007974 -0.005369 0.008570 -0.009433 -0.002254 -0.000875 -0.009773 0.005500 -0.007697 
140 -0.004800 0.004325 0.006546 0.003207 0.003170 0.004926 0.006518 0.007022 0.008347 -0.008905 0.003228 0.005309 0.001044 0.006892 -0.000511 0.004632 -0.003428 0.001380 0.003113 -0.003448 -0.004755 0.008623 0.006913 -0.002368 0.002375 0.007682 0.008702 0.009435 0.008275 0.002619 -0.008709 -0.001477 0.008257 0.002498 0.002493 -0.003541 0.002633 0.001382 -0.004879 -0.000195 -0.003284 -0.001669 0.006988 -0.009876 0.000819 -0.002591 0.000905 -0.006023 -0.009746 0.007679 
141 0.004686 0.002929 0.005333 0.003203 -0.008858 -0.006460 -0.008630 0.003043 -0.001913 0.007375 -0.001324 -0.008738 0.008332 -0.009006 0.002563 -0.003078 0.009691 -0.004039 0.003346 -0.005913 -0.005025 -0.001162 0.006335 0.001817 0.001998 0.001188 0.001844 0.004177 -0.006429 0.009573 0.005186 -0.009772 -0.002492 -0.004444 -0.003329 -0.005967 0.006620 -0.004301 0.001614 -0.005346 -0.001279 -0.008436 -0.009674 -0.003846 -0.003377 0.009715 -0.001880 0.007596 0.008138 0.001713 
142 0.005309 0.003042 0.006078 0.004121 -0.002795 0.001554 0.008257 -0.001497 0.004120 0.007195 -0.002513 -0.008581 0.001367 0.009027 0.001580 -0.005567 0.009259 0.001113 -0.006651 0.004107 -0.006892 0.002516 -0.009394 0.002003 0.003226 -0.002703 -0.003836 -0.005315 -0.005073 -0.005480 -0.002165 -0.006285 0.008522 0.008247 0.008432 -0.004345 0.009324 -0.002460 0.005767 0.002067 0.007645 0.006462 -0.007347 -0.000486 -0.001201 0.004076 -0.003098 -0.000440 0.003097 0.004443 
143 -0.008672 -0.001235 0.005852 0.006627 -0.006259 -0.001307 -0.002623 -0.005310 0.006955 0.005906 -0.007017 -0.002306 -0.001218 -0.008033 -0.007015 0.009702 0.002036 -0.006562 0.002693 0.009776 -0.005473 -0.008119 -0.007579 0.001980 -0.000931 -0.006140 -0.002520 -0.004626 0.003475 -0.009063 -0.001815 0.004023 0.000556 -0.000327 -0.000154 0.006988 0.008126 0.001632 -0.007223 0.008332 0.008996 0.003377 -0.007710 -0.002882 -0.009020 -0.003531 -0.001302 0.007407 0.006889 -0.002529 
144 -0.002688 -0.001737 -0.005463 0.007946 -0.001554 -0.006253 -0.003265 -0.005544 -0.002588 0.002923 0.001297 0.008564 -0.005477 -0.000147 0.001035 0.006831 -0.004910 0.003600 -0.006240 -0.009178 0.009427 -0.001775 0.002287 0.007097 -0.007153 -0.007209 -0.005573 0.007221 0.005660 0.001362 0.002993 0.007754 -0.006819 0.002999 0.005797 -0.009740 0.005721 0.001765 0.005651 0.001302 -0.001406 0.006722 -0.009631 -0.007560 -0.007889 -0.008067 -0.007237 0.000240 -0.008416 -0.003539 
145 -0.009355 0.006261 0.007328 0.004367 0.006828 -0.002932 -0.005347 0.004715 0.009124 0.004223 -0.006127 -0.008433 -0.009654 0.004287 -0.009700 0.003985 0.008306 -0.001175 -0.005753 0.006032 0.005817 -0.005603 0.001025 0.006771 -0.009308 0.002567 -0.009052 0.000263 -0.004258 -0.000102 0.009329 0.005572 -0.001220 0.007951 0.006478 0.006760 0.002619 -0.006711 -0.002290 -0.007111 -0.004929 0.007475 0.003336 -0.001978 0.008950 0.007071 0.008669 0.001222 0.002066 -0.006361 
146 0.004022 0.006550 -0.002767 -0.006257 0.004707 0.003070 0.002264 -0.001056 -0.008964 0.004843 0.009970 0.005806 0.008323 -0.009066 -0.001835 -0.004110 0.006879 0.005403 0.009660 -0.004240 0.002017 -0.002687 -0.007731 -0.003023 -0.005951 0.000727 -0.001197 -0.003896 0.008289 -0.005292 0.007076 -0.005296 -0.004952 0.003318 -0.000101 -0.000661 0.009639 -0.004381 0.005086 0.001571 -0.007626 0.005674 -0.004551 -0.002036 0.008567 -0.007455 0.008799 -0.009920 0.008529 0.000295 
147 0.007951 0.004480 0.007573 -0.002013 0.000716 -0.007271 0.006012 -0.000318 -0.000093 -0.008613 0.009158 0.004444 0.003336 0.002018 0.007323 -0.003665 -0.006185 -0.008816 -0.004180 0.004417 -0.000842 -0.009552 -0.005038 0.002754 -0.007823 -0.003628 -0.009939 -0.009594 -0.009316 -0.009481 -0.008571 -0.008562 -0.002508 -0.000549 -0.005620 -0.005089 0.000413 -0.005269 -0.000775 -0.005113 -0.007740 -0.007080 -0.008723 -0.009569 -0.009155 -0.004417 0.000848 0.005603 -0.001019 0.009280 
148 0.003252 0.009466 0.004481 0.005575 -0.001200 -0.003916 0.000156 0.001031 -0.007195 0.004518 0.003819 -0.002791 -0.004420 -0.001170 -0.001717 0.000672 0.002437 0.008084 -0.008640 0.002982 -0.006312 0.006342 -0.004136 0.000703 -0.005354 -0.007333 0.009605 -0.004603 -0.004376 -0.008880 -0.004603 -0.006374 -0.008066 -0.009235 0.001053 0.006952 0.003888 0.005664 -0.000616 -0.008061 -0.003201 -0.005121 0.008204 -0.009852 0.000980 0.002473 -0.009676 0.008142 -0.008257 -0.002492 
149 -0.006442 -0.002516 0.009401 -0.005952 -0.009283 -0.005263 -0.000735 -0.008847 -0.000385 0.001461 -0.008351 -0.007112 0.003063 0.004221 0.001865 0.008314 0.008875 -0.005421 -0.009774 -0.008506 0.009863 0.009097 0.002043 0.001490 0.003839 0.009337 0.007631 0.002365 -0.006385 0.001863 0.002300 0.003182 0.007005 -0.001764 0.006364 -0.001997 -0.003179 -0.004980 0.005134 0.005890 0.000875 -0.006224 0.008925 -0.009095 0.001979 0.001067 -0.006953 0.002113 0.007947 0.008456 
150 -0.002186 -0.006426 -0.008409 -0.007495 0.008538 0.004352 -0.009277 -0.005223 -0.004469 -0.001492 0.008156 0.001834 -0.005894 0.005106 -0.008298 0.005238 0.004576 -0.001792 -0.005826 0.001553 -0.007747 -0.003124 -0.006616 -0.007660 0.007450 0.005173 -0.007855 0.004163 0.005479 -0.007838 -0.001730 0.008583 0.006652 -0.008096 0.004570 0.002163 -0.003718 0.003463 0.008858 0.006466 0.004681 -0.009099 -0.006053 0.008055 0.007163 0.003280 0.007650 -0.001510 0.004039 -0.005337 
151 0.002778 -0.005664 0.000623 0.004112 -0.002856 -0.002845 0.007225 -0.004309 -0.006439 -0.006491 -0.000840 -0.001540 -0.000158 -0.005040 -0.003260 0.006484 0.008798 -0.001928 0.005276 -0.001176 -0.001757 0.004406 -0.004918 -0.000457 -0.009012 0.000525 0.001470 -0.002296 -0.005153 -0.002008 0.004752 0.007368 0.002631 -0.006631 -0.009758 0.007599 -0.007846 0.008219 0.008251 0.002458 0.006227 0.009104 -0.005908 0.001009 -0.007336 0.007587 0.008077 -0.002686 0.004277 0.000230 
152 -0.004480 -0.009565 -0.001122 0.008595 0.006732 0.004436 -0.000721 -0.000754 -0.002974 0.008377 -0.006706 0.003744 0.006715 -0.003677 -0.006265 -0.001347 0.001111 0.007335 -0.001586 0.005534 -0.009474 0.005476 -0.009857 -0.009050 -0.009727 -0.000192 -0.003264 0.006464 0.000665 0.004394 -0.008995 0.008638 0.007014 -0.001703 -0.009238 -0.000965 -0.000367 0.005578 -0.001180 0.004217 -0.006167 -0.004699 0.002991 -0.004254 0.009928 0.001528 -0.003912 -0.009814 -0.006770 0.003321 
153 -0.004077 0.009098 -0.005948 0.004743 0.005309 -0.000954 0.007705 -0.005143 -0.007941 -0.008409 -0.005497 0.007724 0.008984 0.003296 -0.000242 0.002408 -0.006103 -0.004276 -0.006217 0.002971 0.009611 -0.004563 -0.008110 -0.001525 0.003939 -0.006002 -0.005609 0.002983 0.009692 0.007969 0.006599 -0.004442 0.004683 -0.001087 -0.001173 0.000261 -0.008275 -0.006609 0.006387 0.006156 -0.001369 0.002968 0.009591 0.007304 -0.001788 0.004204 -0.006248 0.002769 0.008282 -0.001336 
154 0.009183 -0.003387 -0.008348 -0.007092 -0.008804 -0.002101 -0.003864 -0.001500 0.000104 0.000688 -0.005455 -0.007998 0.001218 0.004044 0.004693 -0.005023 0.004852 -0.007971 0.009391 -0.006013 0.006318 -0.006295 -0.003547 0.000595 0.005929 0.003134 -0.001309 -0.008637 0.008997 -0.000619 -0.006083 0.007853 0.005834 0.006506 0.004943 -0.003371 -0.008247 -0.006427 -0.000417 0.009252 0.007067 -0.005357 -0.009351 0.002285 -0.002913 0.008780 -0.004047 -0.002708 -0.007872 0.000046 
155 -0.001693 0.000833 0.007500 -0.002497 0.005526 0.004472 0.003517 -0.004785 -0.009581 0.004771 0.005491 -0.007758 -0.009199 0.003293 0.003734 -0.007351 0.009484 0.006599 -0.006440 0.005497 -0.005720 0.006254 -0.004720 0.004848 -0.001998 -0.001181 -0.005793 0.009767 -0.001537 0.005856 0.000653 0.004314 -0.001526 -0.006071 0.009932 -0.002448 0.005848 -0.005401 0.002355 0.003545 -0.006602 0.004429 0.003235 0.001353 -0.001064 0.004982 0.002885 -0.004959 0.005275 0.002820 
156 -0.003384 -0.006330 0.000228 0.009506 0.004742 -0.008697 -0.003394 0.001602 -0.007424 0.007003 -0.007778 0.000670 -0.009572 0.004831 0.009890 -0.006726 -0.006387 -0.006149 -0.002580 -0.009024 0.002443 0.008125 0.007626 -0.009663 0.002229 0.006715 -0.001679 -0.007079 0.003285 -0.006316 -0.007684 0.005291 0.000923 -0.001906 -0.002575 -0.000992 -0.004545 -0.005992 0.006459 -0.009365 -0.007805 0.000489 -0.002768 0.001735 0.001454 0.001599 -0.007444 -0.001130 -0.001455 0.006400 
157 0.000242 -0.006397 0.003781 0.008955 -0.006895 0.002495 0.002473 0.008326 0.008956 0.007111 0.004935 0.008576 -0.009393 -0.005988 0.006479 -0.001232 0.005872 -0.005240 0.007418 -0.007036 0.007563 0.005918 -0.006936 -0.009774 -0.006508 0.009049 -0.006271 -0.005384 0.006472 -0.009284 0.004727 -0.004801 -0.005685 0.002480 0.006368 0.006035 0.009833 0.000904 0.003967 0.006187 -0.009160 0.007550 0.007836 -0.000281 0.000148 0.008982 -0.006714 -0.004308 0.005569 -0.003238 
158 0.000631 0.008169 -0.000084 0.007451 -0.004817 -0.003788 0.001002 0.002614 0.007255 0.003884 -0.008362 0.008811 -0.007842 0.000247 -0.000363 -0.002393 -0.009794 -0.000635 -0.002188 0.005562 0.006711 0.000299 0.003975 -0.005760 -0.008014 0.007112 0.000939 -0.009797 0.001343 0.008866 -0.003483 0.005014 -0.004906 -0.000376 0.003520 -0.004765 -0.001448 -0.001552 -0.000239 0.002428 0.002030 0.009402 0.008054 -0.006843 0.000840 0.001546 -0.003791 -0.001017 -0.004706 0.008945 
159 -0.002960 -0.003530 -0.009294 -0.009340 0.008360 0.007179 -0.002614 -0.009246 -0.007020 -0.002326 -0.009351 -0.001711 -0.001286 -0.000484 -0.009193 0.007329 -0.001627 0.009268 0.003171 -0.003065 0.009771 0.008493 -0.001945 -0.008831 -0.004280 0.003753 -0.009229 -0.000905 0.004031 0.006610 0.001632 -0.005225 0.007519 -0.006372 -0.004050 -0.002729 0.003995 0.006369 0.004037 -0.009353 -0.003729 -0.008606 0.001206 0.003963 -0.007839 0.000268 0.007770 -0.008716 0.004477 0.009551 
160 0.009041 -0.008329 -0.008969 0.000807 -0.004669 0.009187 -0.005364 0.000598 0.001953 -0.007106 0.003104 0.000487 0.009220 -0.003145 0.009247 -0.002964 0.002444 0.000133 -0.009120 -0.008192 -0.008063 0.006789 -0.009188 -0.008635 -0.006987 0.005887 -0.003141 0.007270 0.005983 -0.008511 0.001830 -0.003916 -0.003840 0.002657 0.003541 -0.000628 -0.006144 0.003454 0.004802 0.003694 -0.005615 0.002943 -0.006574 0.000614 -0.001942 -0.004815 0.002226 0.006695 -0.009812 -0.000756 
161 0.009014 0.003498 0.001088 -0.000818 -0.003397 -0.002414 0.006069 0.004061 -0.007194 0.000522 0.005446 0.007944 -0.009566 0.008867 0.004529 0.009893 0.007300 0.004186 -0.006368 -0.006028 0.006218 -0.006960 0.008066 0.009242 -0.005002 0.006991 0.008146 0.009765 0.006454 0.002603 -0.000818 -0.005395 -0.001601 0.001437 -0.008512 0.007824 -0.006356 -0.009944 0.000376 -0.001515 0.000003 0.000023 0.006158 0.000649 -0.009713 0.007901 -0.005852 -0.006620 0.002310 -0.004749 
162 -0.005343 0.000739 -0.001116 0.008636 0.002998 -0.008210 0.007820 -0.000382 -0.000516 0.000595 0.001933 0.004761 0.009426 0.006217 -0.000966 0.005627 0.003138 -0.007283 0.001935 0.008777 -0.004067 0.009159 -0.001550 0.005775 0.008121 0.009604 0.001391 -0.006816 0.005017 -0.006884 0.008570 -0.007435 -0.003068 0.003757 0.002800 -0.009519 -0.000820 -0.009411 -0.008107 -0.001505 -0.007928 0.007675 0.008661 -0.006831 0.000920 -0.005922 -0.009081 -0.003934 -0.003961 -0.006140 
163 0.001476 -0.006252 -0.007261 -0.003918 0.008148 -0.002223 -0.008666 -0.005191 0.003745 0.004717 -0.002864 0.009102 0.006080 -0.003871 0.000458 0.003025 -0.002034 -0.001423 -0.003389 0.005638 0.007215 0.003622 0.005909 -0.008994 0.006640 0.007827 -0.006335 -0.001811 -0.005947 -0.007245 -0.009811 -0.008748 -0.007733 0.004969 -0.009204 -0.000744 0.009095 -0.003971 -0.004203 -0.003736 -0.002652 0.002500 -0.009495 0.001339 -0.005161 0.005944 0.005233 -0.001458 0.004382 -0.007077 
164 -0.004707 -0.003063 -0.006213 -0.005001 0.000997 -0.009414 -0.004131 0.008736 0.007659 -0.001449 0.008438 -0.004305 0.005590 0.004895 -0.005692 0.002439 -0.009897 -0.001320 0.001292 0.000531 0.001510 -0.006031 0.002202 0.006534 0.005125 0.009825 -0.005151 0.002008 -0.008741 -0.009690 0.002048 -0.006482 -0.004775 0.004486 -0.008391 -0.007374 -0.002665 0.006416 -0.003653 -0.004106 0.002903 -0.004838 -0.005927 0.004884 0.002240 -0.005213 0.007599 0.006160 -0.009341 -0.005646 
165 0.004739 -0.008717 0.008473 0.007924 -0.001695 -0.003183 0.000994 -0.005439 0.006109 0.004323 -0.001466 -0.001673 -0.009036 0.000364 -0.003594 0.008285 0.000682 -0.003497 -0.005077 -0.001504 0.008076 0.009302 -0.000603 0.008023 -0.009042 0.000324 0.000140 0.000930 -0.007859 -0.003869 -0.007534 0.006278 -0.000563 0.008285 -0.003314 -0.001870 0.005659 -0.006650 -0.001887 -0.004452 0.008619 -0.007113 0.007059 0.002595 -0.008870 -0.006540 -0.001162 0.008333 0.001004 0.006630 
166 -0.006239 0.006826 -0.008946 0.008960 -0.002859 -0.002865 -0.000908 0.002013 -0.000709 0.003322 0.007932 -0.007649 -0.004478 -0.005548 0.005384 -0.008463 0.006149 0.004585 0.004262 -0.003867 -0.003518 -0.007216 0.002379 0.007702 -0.003165 0.003112 0.002546 -0.007195 0.002520 0.004632 -0.007424 0.003007 -0.006151 -0.008594 0.005283 -0.005132 -0.003865 0.002496 -0.001523 0.009953 -0.000309 0.001965 -0.005027 -0.005178 -0.000171 -0.001125 0.002581 0.001039 -0.003138 0.007290 
167 -0.005884 0.005166 -0.003899 0.006270 0.007388 0.008766 0.007860 -0.000120 0.005212 -0.001599 0.007451 -0.002819 -0.004601 0.005634 -0.004813 -0.007764 -0.009239 0.007027 -0.003621 0.004107 0.009112 0.004142 0.001342 -0.003142 -0.006736 0.003543 0.005386 -0.000451 -0.008972 -0.003209 0.008824 0.006245 -0.004781 0.000450 -0.003030 -0.003993 0.003648 -0.003919 0.000135 -0.007102 -0.000872 -0.009753 -0.006367 0.005980 0.009471 -0.005489 -0.002225 0.009316 0.007490 0.005435 
168 -0.002126 0.001969 -0.009003 0.004582 0.004242 0.008000 0.002805 -0.001487 -0.007808 -0.003527 -0.009274 -0.001207 0.002037 0.001450 0.007573 0.001983 -0.000911 0.001993 -0.008842 0.009645 -0.006339 0.002165 0.004294 0.008343 0.001064 -0.008971 -0.005207 0.009638 0.001613 0.002646 -0.004532 -0.009907 0.000618 -0.003920 0.004131 -0.008729 0.008392 -0.004607 0.003596 -0.000266 0.000249 0.009647 0.001673 0.007045 -0.003500 -0.007095 -0.008824 0.009766 0.002458 0.004229 
169 0.009918 0.009460 0.008436 0.007683 0.000710 -0.007312 0.009746 -0.007672 -0.008635 -0.008985 0.006700 -0.007774 -0.005303 0.001001 0.004612 0.006441 0.008516 0.004211 -0.006207 -0.000965 -0.004363 0.007205 0.009556 -0.000929 0.003870 0.001547 -0.007787 0.000610 0.006030 0.003799 0.007078 0.002716 -0.000073 -0.004476 0.004462 0.009450 0.008376 0.003284 -0.000322 0.009876 -0.000812 -0.001358 -0.006962 -0.001944 0.005175 -0.001841 0.009856 -0.006947 0.004151 0.003400 
170 0.000443 -0.001072 -0.001072 0.000926 0.000112 0.004745 -0.002682 0.002299 0.009176 0.004565 -0.007867 0.004082 -0.007053 -0.002548 0.001187 0.007838 0.001737 0.007468 0.007292 0.000130 -0.009141 0.003675 -0.001740 -0.007481 0.000626 0.000136 0.006904 0.001568 -0.003650 -0.004086 -0.008964 0.008839 0.008344 -0.004930 -0.006531 0.000896 -0.008081 0.006668 0.002015 0.009301 0.007389 0.004770 0.009487 -0.009384 0.000066 0.008438 -0.006303 0.006403 0.000262 0.001736 
171 -0.002542 0.003225 0.003291 -0.006276 0.008582 -0.007354 0.009464 -0.001534 -0.000118 -0.008774 0.004094 -0.004975 0.009171 0.000529 -0.002506 0.007463 -0.000740 0.007117 0.004976 0.004842 -0.002038 0.002553 0.006852 0.001225 -0.001910 0.003399 0.008435 -0.004325 -0.002543 -0.008783 0.000038 -0.007747 -0.001126 -0.007429 -0.003027 0.000023 -0.009846 -0.000977 -0.000448 -0.006953 0.004111 0.007134 -0.006912 -0.009613 -0.001445 -0.001532 0.007894 -0.003894 -0.003699 -0.000412 
172 -0.000718 -0.000734 0.005159 0.002055 0.007565 -0.006070 -0.002056 0.002432 -0.001946 -0.000839 -0.007534 0.002282 0.001063 -0.000979 -0.008460 0.008167 -0.008096 0.002572 0.002977 -0.008351 -0.009110 0.003877 -0.000411 0.009292 0.003333 0.001998 -0.000810 0.002658 -0.000455 0.000998 0.004592 -0.001692 -0.005161 0.009940 0.003607 0.007807 0.009528 0.002885 0.009047 0.007715 0.008923 -0.001103 -0.001274 -0.000404 0.003339 0.002038 -0.004544 -0.009987 0.008086 0.001371 
173 0.007049 -0.009474 0.003478 -0.009043 0.006318 -0.002299 -0.005173 0.009859 -0.008925 -0.006903 -0.007555 0.002141 0.004133 0.003279 -0.008354 -0.003136 -0.006696 -0.000191 -0.007260 0.008091 -0.008599 -0.000752 0.001042 -0.005116 -0.003764 0.003161 0.006864 0.001306 -0.009378 -0.001892 0.005518 -0.003581 0.002371 -0.004347 -0.002684 -0.005713 0.004296 -0.007641 0.007571 -0.006029 -0.005790 0.009787 0.006595 -0.000467 -0.005076 -0.005500 0.009702 0.000038 -0.005749 -0.001939 
174 -0.002797 0.009546 0.005004 -0.002968 -0.005588 0.007120 0.004996 -0.007025 -0.008361 -0.003177 -0.002962 -0.007546 0.004199 0.007718 0.008943 0.007030 -0.007596 -0.006133 -0.006475 -0.006733 0.001565 -0.005668 0.008594 -0.007274 0.001996 -0.006824 -0.003035 -0.008029 0.009009 -0.000539 0.006448 0.002563 0.002916 0.007251 0.009858 0.001065 0.009031 -0.004394 0.005005 0.009040 -0.002335 0.008591 -0.005296 -0.006950 0.004131 -0.004733 0.006766 0.004657 0.008741 0.009697 
175 -0.005997 0.000425 -0.003191 -0.009057 -0.005771 0.001916 -0.001354 0.003069 -0.009744 -0.004309 0.009565 -0.004865 0.009896 -0.006685 0.009879 0.001206 0.005961 -0.008652 0.004900 0.000343 -0.003735 -0.008646 0.004940 -0.003391 0.003620 -0.000105 0.005313 -0.000934 -0.004162 0.008534 0.006329 0.001777 0.005732 -0.006167 -0.006697 0.003805 -0.008886 -0.002645 -0.003453 0.009211 -0.005203 0.005662 -0.008628 0.007059 0.004593 -0.009684 -0.001908 -0.008589 -0.006685 0.007881 
176 0.002019 0.001329 -0.001225 -0.000081 -0.006534 0.000876 0.003786 -0.007009 0.007744 -0.000885 -0.003840 -0.001339 0.005167 -0.009893 0.008710 -0.006508 -0.008953 -0.007084 -0.000751 -0.000956 -0.004303 -0.008396 -0.009412 0.001883 -0.005571 -0.004767 -0.009460 -0.006432 0.007555 -0.002134 -0.008082 -0.009336 0.000388 -0.001435 -0.007465 -0.005267 0.003241 0.001394 -0.004798 -0.007663 -0.008574 -0.004586 0.007733 -0.004962 0.005255 -0.005313 0.002939 -0.000600 -0.009958 -0.001723 
177 -0.001367 0.006984 -0.003903 -0.009754 -0.002371 0.004353 -0.001265 -0.000343 0.007737 0.003070 -0.001732 0.000571 0.001772 -0.000302 0.000007 -0.007948 -0.002455 -0.004203 -0.005734 -0.001839 -0.002132 -0.002068 -0.003643 0.007962 -0.009445 -0.002335 0.006593 -0.004483 0.008417 -0.008442 -0.009714 -0.000111 0.009268 0.001173 -0.002252 0.005139 -0.004080 -0.006926 0.004292 0.000331 -0.003815 -0.001178 -0.009769 -0.000474 0.002875 -0.005019 0.000876 0.001788 -0.006196 0.003112 
178 0.006542 -0.008821 -0.008216 0.009778 0.002539 -0.003239 0.004627 0.006542 0.009181 -0.007403 0.005146 0.009966 -0.008220 -0.002250 -0.008847 0.001613 0.000648 -0.003719 0.005461 0.008045 -0.008901 -0.002746 -0.004118 0.000824 0.003444 -0.005269 -0.004771 -0.003486 0.002996 0.007774 0.001314 -0.003324 0.000067 0.000446 -0.003050 0.007874 0.009971 0.001810 0.009949 0.001669 -0.006981 0.005927 -0.006876 -0.005376 -0.005476 -0.008139 0.004288 0.008302 0.004799 0.003674 
179 0.006252 0.009265 -0.000845 -0.009572 0.006829 0.009076 -0.002094 0.006186 -0.001168 0.004297 0.006365 -0.009989 0.000074 -0.003509 -0.005157 0.005964 -0.006634 -0.007780 -0.001348 0.003109 0.006522 0.003046 -0.001893 -0.004492 -0.007647 0.005533 -0.001482 0.002223 0.008672 0.001242 -0.009801 0.007317 -0.001707 -0.003264 0.008462 -0.000148 0.009026 0.003578 -0.006381 -0.006109 -0.006314 -0.001670 -0.009016 0.008497 -0.009916 0.002555 -0.009132 0.007732 0.001032 0.002815 
180 0.008584 0.000658 -0.005656 -0.009327 0.004445 0.001338 0.002831 0.002691 0.003762 0.008834 0.004307 0.000431 -0.003151 0.007209 0.001584 -0.009543 -0.000981 0.005526 0.002474 0.004330 -0.009418 -0.002154 -0.000211 -0.001386 -0.003147 0.003233 -0.008657 -0.005130 0.008143 0.005749 -0.000052 -0.000339 -0.000234 -0.005544 -0.006584 0.004550 -0.007968 0.003418 0.004560 0.006099 -0.009744 -0.008305 -0.008808 0.005871 0.004750 0.003352 -0.003875 -0.009572 -0.009175 0.007450 
181 0.007171 -0.008668 0.008795 -0.001949 -0.002857 0.005147 0.003972 -0.005780 0.003853 -0.006566 0.006669 0.000017 -0.009886 0.002757 -0.007803 0.004505 0.003738 0.004677 0.000870 0.001748 -0.002462 -0.004243 -0.002000 -0.009193 0.009327 -0.002440 -0.006100 -0.004256 0.001916 -0.003352 0.003882 0.005623 0.003118 0.004584 0.008258 -0.005493 0.005746 -0.002070 -0.007659 0.001456 0.007613 -0.001751 0.006444 -0.009466 -0.008470 -0.007898 0.005879 -0.009196 0.005311 -0.008946 
182 -0.009042 -0.003672 0.001767 -0.008335 0.006995 0.006168 -0.001288 -0.004500 0.004301 0.004387 -0.001043 0.009119 -0.001812 0.000047 -0.009684 0.004086 0.008971 0.007212 0.005600 -0.003037 0.001960 0.004942 0.002623 0.009313 0.007469 -0.002698 0.004196 0.007698 0.000811 -0.006647 -0.001867 0.003681 0.002296 0.007158 -0.002755 -0.006176 -0.002761 -0.002221 -0.000654 -0.000311 -0.004049 0.009279 0.007248 0.007840 -0.006255 -0.009279 0.008763 0.009838 -0.009066 -0.003833 
183 -0.003297 0.002246 -0.007170 0.004679 0.008882 0.006628 0.009745 0.000320 0.008112 0.009544 -0.003008 -0.007848 0.002205 0.002558 -0.005116 -0.005762 0.003974 0.002232 0.008733 0.005641 -0.008769 -0.009872 0.008851 -0.009578 0.006789 -0.007190 -0.009448 -0.002355 -0.001540 0.001840 -0.005853 0.001372 -0.000943 -0.006220 0.004949 0.000665 0.006392 -0.009808 -0.006730 -0.000413 0.003278 -0.002361 -0.005576 0.007201 -0.002473 0.007685 0.008722 -0.002432 0.001953 -0.003110 
184 0.001477 0.009752 -0.005634 0.006818 0.003002 0.007815 -0.002420 0.004031 0.008608 0.000819 -0.000593 0.000092 -0.001390 0.002827 -0.007339 -0.008437 -0.001682 -0.007099 -0.004848 0.000006 -0.001954 -0.004895 0.009694 -0.008015 -0.006895 -0.001501 0.004100 -0.000938 0.003810 -0.002852 -0.008819 -0.002202 -0.004529 -0.009887 0.008751 0.009757 -0.001598 0.001457 -0.000379 0.001502 0.007915 0.000243 -0.008395 0.004594 0.004323 0.000532 -0.002486 -0.004404 -0.007063 0.001388 
185 -0.004838 -0.003929 0.004071 0.006872 0.007360 -0.007419 -0.006963 0.006048 0.001922 -0.003311 0.000148 -0.007022 -0.008340 0.004956 -0.009285 0.006725 -0.005615 -0.001053 -0.004948 -0.008650 -0.007088 0.005222 0.008472 -0.004084 -0.004948 -0.004654 -0.008715 -0.005513 -0.006382 0.005879 0.008806 0.006124 0.006422 -0.001615 -0.008654 -0.005110 -0.003724 -0.000573 -0.005781 0.009847 -0.009006 0.000565 -0.002264 0.005058 0.003388 -0.001635 0.007209 -0.000414 -0.008730 -0.005614 
186 -0.007047 -0.002508 -0.002547 -0.004807 -0.009722 0.007840 0.009749 -0.007652 -0.000502 0.004692 0.000971 0.002412 0.005925 0.007110 0.008931 0.006950 -0.000128 -0.000843 -0.003558 -0.007478 -0.003350 0.009896 -0.008683 -0.009308 -0.003427 -0.006612 0.006367 -0.001977 0.004954 0.008697 -0.000595 -0.003924 -0.007897 -0.000115 -0.006756 -0.008586 -0.006665 -0.003986 -0.004304 -0.004400 0.008961 -0.008853 -0.000425 0.005196 0.004294 0.004347 0.002691 0.001764 0.009647 -0.000325 
187 0.007858 -0.008132 0.000332 0.006195 0.002889 0.007069 -0.003339 -0.002032 0.000595 0.003931 0.003948 -0.005941 -0.001210 0.004015 -0.007496 -0.001472 0.000285 -0.006115 -0.002358 0.000438 -0.007106 0.005102 -0.000326 -0.006148 0.009428 -0.005771 0.003914 -0.002167 0.007701 0.002829 0.000673 -0.003557 -0.009476 -0.002536 0.005264 -0.001256 0.005711 0.009696 -0.002001 -0.001201 0.006074 -0.003911 0.004192 -0.004330 0.009424 -0.001795 -0.005846 -0.006580 -0.001424 0.002605 
188 0.003198 0.001112 0.001341 0.000854 -0.008363 -0.007193 -0.009468 0.009512 0.004783 0.007569 0.003961 -0.009857 -0.007052 0.009460 0.004440 0.009309 -0.008555 0.007542 -0.000217 -0.001427 0.000587 -0.004121 0.002802 -0.005503 0.005686 -0.006469 -0.008691 -0.001356 -0.002946 0.004563 0.008117 -0.002424 -0.009995 -0.001964 0.001038 0.002856 0.004850 0.008012 0.002885 -0.008955 0.006902 -0.006444 -0.008530 0.003708 0.006473 -0.001272 0.009606 0.007405 -0.001123 -0.007409 
189 0.005106 -0.006300 0.004425 0.009209 -0.009219 -0.000844 0.008430 0.007643 0.004444 0.005334 0.001205 -0.008045 0.008908 -0.001203 -0.001938 -0.008791 -0.008015 -0.008893 -0.000687 -0.000533 0.006489 -0.001172 -0.009729 -0.004208 -0.009770 0.003522 0.001249 0.004245 0.006022 -0.008249 0.007559 -0.006110 0.001678 -0.004923 0.009513 -0.001211 -0.009991 -0.009936 -0.007576 -0.001996 0.008829 -0.001727 0.006605 -0.004402 0.000949 0.006267 0.007368 0.000633 -0.005817 0.005609 
190 -0.004974 0.007173 0.001342 -0.007138 -0.005110 -0.005722 0.000240 0.009586 -0.002726 0.006013 -0.006312 0.002346 -0.002510 -0.008561 0.009500 0.002704 -0.004149 0.004619 0.000488 0.007222 -0.002332 0.004615 0.004464 -0.002538 -0.006744 -0.004510 0.004240 -0.000012 -0.002075 0.006307 0.007630 0.006361 -0.008011 -0.008872 0.007446 -0.006855 0.000759 0.009015 0.001500 0.001901 -0.005450 0.004030 -0.007396 -0.000808 0.008672 0.005238 0.008572 -0.003419 0.003439 0.006699 
191 0.002216 -0.009370 0.004163 0.007477 -0.008652 0.002902 0.001156 -0.008367 -0.001219 -0.000041 0.009731 0.008231 -0.007673 -0.006637 -0.009799 -0.008667 0.004799 -0.000322 0.007878 0.000001 -0.005991 0.000465 -0.006925 -0.001702 0.002770 0.002288 0.001104 -0.004713 -0.001105 -0.003292 -0.007723 0.005029 -0.004805 0.000288 -0.008093 0.006588 0.009483 -0.005409 -0.009694 0.004026 0.004572 0.006180 0.002788 0.006405 0.008275 0.006615 0.009664 0.007788 -0.006597 -0.007539 
192 -0.003752 0.007237 -0.002231 0.005280 -0.007150 0.008816 0.004186 -0.008366 -0.005215 0.001585 0.000467 0.003085 0.002365 -0.000391 -0.000577 -0.003803 0.000901 0.001949 -0.001132 -0.007469 0.000707 -0.007332 0.001613 -0.001350 -0.002905 0.000829 -0.004528 0.006117 -0.009623 0.000493 -0.006744 -0.008506 0.005867 -0.009276 -0.007221 -0.003656 -0.006124 -0.004417 -0.003148 0.007229 0.009717 0.004134 -0.006711 -0.004288 -0.006298 -0.009561 -0.005098 -0.001645 -0.008855 -0.006440 
193 -0.000497 -0.003280 -0.007643 -0.002439 0.009904 -0.002629 -0.007349 -0.008498 -0.006081 -0.008131 -0.007660 0.009448 0.004360 -0.003222 -0.003264 -0.009540 -0.000961 -0.006341 -0.003849 -0.001399 0.000768 0.009075 0.005898 0.002933 -0.002639 -0.005411 0.006290 -0.002481 0.001630 0.006763 0.002639 0.001422 -0.008613 0.007160 0.005258 -0.001297 0.009445 0.002342 0.009458 -0.001574 0.003616 0.003871 -0.004447 -0.005347 0.006713 0.008311 0.008855 0.006446 -0.003452 -0.002777 
194 -0.000323 -0.002132 -0.004066 -0.002829 0.003330 -0.002018 -0.007316 -0.000284 0.000128 0.000849 -0.000391 0.001421 -0.004617 0.005533 -0.005478 0.003849 -0.000592 -0.003904 0.000236 -0.006438 0.007515 0.001600 0.004564 0.002123 0.000016 -0.003892 0.000317 0.006094 0.002224 -0.001317 0.005308 0.007038 0.004452 -0.006614 0.002350 -0.008484 0.002012 0.009281 -0.000744 -0.008907 -0.004784 0.000429 0.008837 0.002329 0.009377 0.005894 0.008907 0.006789 -0.005192 0.009738 
195 0.002277 -0.008967 0.006821 0.001024 -0.003239 0.006625 0.005729 -0.006187 0.005170 -0.009873 -0.003157 0.007169 0.005318 0.003102 -0.009523 0.005154 0.000016 -0.007888 0.001943 -0.003170 -0.002922 0.008720 -0.008446 -0.003741 0.009316 0.009488 0.004622 0.002506 -0.005458 -0.004022 -0.008541 -0.000369 -0.004432 -0.005246 0.007378 -0.003302 0.000208 -0.002623 -0.007308 0.007768 0.001274 0.000410 -0.007288 -0.008095 -0.003422 0.005417 -0.002247 -0.006829 0.008932 -0.001042 
196 0.003125 0.000628 0.006151 -0.007403 0.009142 0.008340 0.001044 0.002896 0.001116 -0.004633 -0.008574 -0.008582 0.009359 0.005774 0.000109 0.004724 0.009185 0.008622 -0.005095 -0.005621 0.000905 -0.002027 0.008627 -0.003056 0.009832 -0.007108 -0.000912 -0.006019 0.006278 -0.002561 0.009099 -0.007946 0.005557 0.000677 0.006473 0.002724 0.007980 -0.003330 0.004023 0.002554 -0.001140 0.004478 -0.000439 -0.006893 0.008510 0.008166 -0.004100 0.000945 -0.007759 -0.003205 
197 0.000853 -0.002369 -0.009633 0.004428 0.007231 -0.000273 0.008201 -0.009872 -0.007153 0.008795 -0.003947 -0.002044 0.000515 -0.008601 0.009238 -0.003024 -0.001955 -0.000899 0.008068 0.001250 -0.001749 0.008462 -0.002146 0.009840 -0.001054 0.001046 0.008910 0.006809 0.002941 0.003416 -0.003452 0.001219 -0.001950 0.007133 0.001080 0.007133 -0.002916 0.008760 0.007820 0.003614 -0.002143 0.009860 0.007079 -0.005276 0.003181 -0.003005 -0.005830 0.009525 0.000867 0.001728 
198 0.009406 0.002080 0.003730 0.000620 -0.001902 -0.008549 0.009581 -0.004764 -0.009440 0.001701 0.001232 -0.007863 0.002104 0.001893 0.006497 0.002885 -0.006957 0.006089 -0.001812 0.004043 0.008689 -0.006649 -0.005883 -0.002826 -0.000646 0.007741 -0.002903 0.008841 0.000352 -0.001676 -0.005060 -0.009395 -0.008007 -0.000840 0.000458 -0.000971 -0.000408 0.009312 -0.008535 -0.004325 -0.006539 -0.007156 -0.009227 0.007107 0.008911 -0.001183 0.006194 0.004887 0.006256 0.001294 
199 -0.009459 0.005576 -0.009192 -0.000663 0.001627 -0.009261 -0.007120 -0.002991 0.002263 0.006936 0.007783 0.003372 0.000262 0.005732 -0.004169 -0.007510 0.008437 0.003687 0.002336 0.003424 0.004600 0.002365 -0.002389 0.000237 -0.008436 0.008328 -0.003032 -0.008009 -0.002858 -0.006861 0.000719 -0.007251 -0.005855 -0.006640 -0.005823 0.001573 0.000386 -0.009447 0.007655 0.002527 -0.001321 -0.008718 -0.003535 0.004671 -0.003166 0.007108 0.000919 0.002070 0.007665 -0.005405 
200 0.006331 -0.006215 0.008985 -0.004696 0.003011 0.003879 0.003605 -0.004201 0.006274 0.001414 -0.000661 0.007641 -0.003568 0.000454 0.008998 0.007393 -0.001204 0.000060 -0.009604 -0.003382 0.003680 0.004294 0.006345 0.001878 0.006396 0.002220 0.004656 -0.005265 0.007257 0.007900 -0.001856 -0.008247 -0.008425 0.000396 0.004620 -0.005506 0.009662 0.003772 0.006896 0.009519 -0.003169 0.007088 -0.007214 0.008393 -0.006605 0.004409 -0.004898 0.007676 0.004666 -0.005204 
201 -0.008344 0.008932 0.000956 0.002312 0.005261 -0.001277 -0.002422 -0.003981 0.003729 0.008612 -0.005155 0.009980 -0.000128 -0.004839 -0.001931 0.003258 -0.008495 -0.000067 -0.002438 -0.000086 0.001437 0.009490 0.008638 0.009012 -0.002516 -0.004605 -0.008392 0.004614 -0.007545 -0.005791 -0.008215 0.005782 0.004166 0.007497 -0.000519 -0.003421 -0.004573 0.001819 -0.009990 0.006068 -0.005949 0.008739 0.003683 0.008310 -0.007149 0.004820 0.005813 0.002369 0.009639 -0.008377 
202 0.006713 -0.007693 0.007228 -0.004289 0.001694 0.007186 -0.006569 0.008647 -0.008929 0.001069 0.001059 0.006992 0.000154 -0.006982 0.007925 -0.007689 -0.000743 0.007097 -0.003157 -0.008835 0.003691 -0.007633 -0.004377 -0.004884 -0.006229 0.002890 -0.002921 0.000728 -0.005193 -0.002270 -0.000976 0.009562 -0.002887 0.000949 0.004269 0.008181 -0.003999 0.001610 0.000628 0.008148 -0.008217 -0.006226 0.000912 0.006026 0.009773 -0.003495 0.002935 0.003376 0.000282 -0.006136 
203 0.009509 0.006761 -0.001377 -0.005085 0.008445 0.007743 0.005109 -0.006280 -0.007442 0.002886 0.005051 0.009342 -0.000341 -0.006248 0.008763 0.005842 -0.007440 0.006902 -0.008442 -0.007716 -0.000925 -0.006100 -0.006254 0.002729 -0.007984 -0.008691 0.000642 -0.003759 0.009195 0.000690 0.002557 -0.003118 -0.006575 0.008606 -0.005195 -0.006286 -0.007482 0.006620 -0.002303 0.000800 -0.000714 -0.008706 -0.003455 -0.002797 -0.008456 0.004191 0.001664 0.006985 -0.007899 -0.008127 
204 0.008364 -0.000793 0.008773 0.005902 -0.003041 0.007934 -0.005630 0.002842 -0.007239 -0.007773 0.006705 0.004254 0.006083 -0.003850 0.008591 -0.003298 -0.007764 0.008763 0.007840 -0.008253 -0.008466 0.004131 -0.002735 0.005952 0.009290 0.001314 -0.005322 0.000880 -0.004186 0.004377 0.002892 0.003094 0.006421 0.002381 0.009720 0.004154 0.001422 0.009389 0.007973 0.000625 0.006130 0.004464 -0.004536 -0.005931 -0.009142 -0.008333 -0.004993 -0.008952 -0.009082 0.000062 
205 -0.005588 0.003124 0.006622 0.003711 0.006494 0.006861 0.003284 0.001676 0.009063 0.003820 -0.008785 -0.001980 0.004933 0.000564 0.005728 0.001805 0.001917 0.008656 0.007135 0.007094 -0.007173 0.004659 0.000750 -0.007050 -0.004526 -0.009867 -0.003116 0.003435 -0.007327 -0.008357 -0.009150 0.007611 -0.007766 0.000751 0.002960 -0.000459 0.006972 -0.005981 -0.001472 -0.001713 -0.005302 -0.006991 0.007865 0.007912 -0.001776 0.004285 0.006284 -0.002521 0.005364 -0.000592 
206 -0.005902 0.001049 0.008930 -0.005058 -0.003381 -0.002314 0.006734 -0.007552 0.004159 -0.008548 0.001589 -0.001511 -0.007969 -0.008590 0.001307 0.004628 0.000548 -0.008379 -0.001299 0.007427 -0.004978 -0.008852 -0.008417 0.008449 0.005765 -0.005945 0.002766 -0.005744 0.008091 0.009403 0.000062 -0.003590 0.002311 -0.008745 -0.003716 -0.008525 -0.006262 -0.001327 0.009244 0.001012 -0.007316 -0.004280 0.001755 -0.008415 -0.005537 -0.008542 0.001629 -0.005245 -0.000614 -0.000049 
207 0.001679 0.007085 -0.007234 0.000260 -0.000283 -0.009862 0.004916 -0.003553 -0.001443 -0.009524 -0.008853 -0.002423 0.006009 -0.000338 -0.008226 -0.002290 -0.005113 -0.005742 -0.007893 -0.004091 0.003004 -0.004173 0.002460 -0.003763 -0.006829 -0.009070 -0.001855 0.007757 -0.006799 -0.008868 -0.000526 0.004531 -0.004092 -0.007007 -0.008240 0.005621 -0.000898 -0.001922 0.005316 -0.004910 0.005598 -0.007053 -0.004546 0.002000 0.003206 0.009164 0.002487 0.000415 0.004741 0.003291 
